{"learner":{"attributes":{"best_iteration":"144","best_score":"0.4284846494290857","scikit_learn":"{\"_estimator_type\": \"classifier\"}"},"feature_names":["city","age_band","discovery_channel","months_since_discovery","monthly_streams","catalog_depth_pct","skip_rate","playlist_adds","saves_library","follows_socials","social_engagements_90d","on_mailing_list","email_open_rate","attended_show","shared_track","comments_dms","listening_intensity","direct_channel_score","advocacy_score","engagement_velocity"],"feature_types":["c","c","c","float","int","float","float","int","int","int","int","int","float","int","int","int","float","float","float","float"],"gradient_booster":{"model":{"cats":{"enc":[{"offsets":[0,9,18,24,31,39,46,56,62,69,76,84,90,97,103,109,113,119,129,134,140,144,149,154,160,164,173,182,189,196,202,209,215,221],"values":[65,109,115,116,101,114,100,97,109,66,97,114,99,101,108,111,110,97,66,101,114,108,105,110,66,114,105,115,116,111,108,66,114,117,115,115,101,108,115,67,111,108,111,103,110,101,67,111,112,101,110,104,97,103,101,110,68,117,98,108,105,110,71,108,97,115,103,111,119,72,97,109,98,117,114,103,72,101,108,115,105,110,107,105,75,114,97,107,111,119,76,101,105,112,122,105,103,76,105,115,98,111,110,76,111,110,100,111,110,76,121,111,110,77,97,100,114,105,100,77,97,110,99,104,101,115,116,101,114,77,105,108,97,110,77,117,110,105,99,104,79,115,108,111,79,116,104,101,114,80,97,114,105,115,80,114,97,103,117,101,82,105,103,97,82,111,116,116,101,114,100,97,109,83,116,111,99,107,104,111,108,109,84,97,108,108,105,110,110,85,116,114,101,99,104,116,86,105,101,110,110,97,86,105,108,110,105,117,115,87,97,114,115,97,119,90,117,114,105,99,104]},{"offsets":[0,5,10,15,20,23],"values":[49,54,45,50,49,50,50,45,50,57,51,48,45,51,57,52,48,45,53,52,53,53,43]},{"offsets":[0,17,40,55,73,86,95,113,129],"values":[65,108,103,111,114,105,116,104,109,105,99,32,114,97,100,105,111,65,110,111,116,104,101,114,32,97,114,116,105,115,116,39,115,32,99,111,108,108,97,98,66,97,110,100,99,97,109,112,32,98,114,111,119,115,101,69,100,105,116,111,114,105,97,108,32,112,108,97,121,108,105,115,116,70,114,105,101,110,100,32,115,104,97,114,101,100,76,105,118,101,32,115,104,111,119,77,117,115,105,99,32,98,108,111,103,32,47,32,112,114,101,115,115,83,104,111,114,116,45,102,111,114,109,32,118,105,100,101,111]},{"offsets":[],"values":[]},{"offsets":[],"values":[]},{"offsets":[],"values":[]},{"offsets":[],"values":[]},{"offsets":[],"values":[]},{"offsets":[],"values":[]},{"offsets":[],"values":[]},{"offsets":[],"values":[]},{"offsets":[],"values":[]},{"offsets":[],"values":[]},{"offsets":[],"values":[]},{"offsets":[],"values":[]},{"offsets":[],"values":[]},{"offsets":[],"values":[]},{"offsets":[],"values":[]},{"offsets":[],"values":[]},{"offsets":[],"values":[]}],"feature_segments":[0,33,38,46,46,46,46,46,46,46,46,46,46,46,46,46,46,46,46,46,46],"sorted_idx":[0,1,2,3,4,5,6,7,8,9,10,11,12,13,14,15,16,17,18,19,20,21,22,23,24,25,26,27,28,29,30,31,32,0,1,2,3,4,0,1,2,3,4,5,6,7]},"gbtree_model_param":{"num_parallel_tree":"1","num_trees":"205"},"iteration_indptr":[0,1,2,3,4,5,6,7,8,9,10,11,12,13,14,15,16,17,18,19,20,21,22,23,24,25,26,27,28,29,30,31,32,33,34,35,36,37,38,39,40,41,42,43,44,45,46,47,48,49,50,51,52,53,54,55,56,57,58,59,60,61,62,63,64,65,66,67,68,69,70,71,72,73,74,75,76,77,78,79,80,81,82,83,84,85,86,87,88,89,90,91,92,93,94,95,96,97,98,99,100,101,102,103,104,105,106,107,108,109,110,111,112,113,114,115,116,117,118,119,120,121,122,123,124,125,126,127,128,129,130,131,132,133,134,135,136,137,138,139,140,141,142,143,144,145,146,147,148,149,150,151,152,153,154,155,156,157,158,159,160,161,162,163,164,165,166,167,168,169,170,171,172,173,174,175,176,177,178,179,180,181,182,183,184,185,186,187,188,189,190,191,192,193,194,195,196,197,198,199,200,201,202,203,204,205],"tree_info":[0,0,0,0,0,0,0,0,0,0,0,0,0,0,0,0,0,0,0,0,0,0,0,0,0,0,0,0,0,0,0,0,0,0,0,0,0,0,0,0,0,0,0,0,0,0,0,0,0,0,0,0,0,0,0,0,0,0,0,0,0,0,0,0,0,0,0,0,0,0,0,0,0,0,0,0,0,0,0,0,0,0,0,0,0,0,0,0,0,0,0,0,0,0,0,0,0,0,0,0,0,0,0,0,0,0,0,0,0,0,0,0,0,0,0,0,0,0,0,0,0,0,0,0,0,0,0,0,0,0,0,0,0,0,0,0,0,0,0,0,0,0,0,0,0,0,0,0,0,0,0,0,0,0,0,0,0,0,0,0,0,0,0,0,0,0,0,0,0,0,0,0,0,0,0,0,0,0,0,0,0,0,0,0,0,0,0,0,0,0,0,0,0,0,0,0,0,0,0,0,0,0,0,0,0],"trees":[{"base_weights":[5.7282643E-3,-3.80457E-1,2.0132537E0,-4.977768E-1,1.3208561E0,1.2565361E0,4.102666E0,-7.850372E-1,-1.716945E-1,5.393033E-1,1.9172932E0,8.342144E-1,2.1365018E0,1.5872966E-1,3.384082E0,-5.96667E-1,-8.449507E-1,-3.2730982E-1,2.8460586E-1,3.0778462E-1,5.3120967E-2,1.2003137E0,2.7477746E0,9.509667E-1,-3.6762252E-1,1.7325543E0,1.1502506E-1,2.951732E0,1.3734755E-1,-1.883786E-2,1.3478856E-2,-2.7050769E-2,-2.1699589E-2,-2.9916952E-3,-1.4003473E-2,4.935493E-3,3.6208846E-2,3.6180676E-3,3.2510128E-2,1.7163424E-2,5.2168477E-2,9.1359675E-2,3.361082E-2,1.6785374E-2,3.584147E-2,-6.1519234E-4,-2.439032E-2,2.1565193E-2,6.0221758E-2,3.3826184E-2,9.239625E-2],"categories":[1,2,3,5,7,8,9,12,13,14,15,17,19,21,22,23,24,25,26,29,30,31,32,3,23,26],"categories_nodes":[7,11],"categories_segments":[0,23],"categories_sizes":[23,3],"default_left":[0,0,0,0,0,0,0,1,0,0,0,1,0,0,0,0,0,0,0,0,0,0,0,0,0,0,0,0,0,0,0,0,0,0,0,0,0,0,0,0,0,0,0,0,0,0,0,0,0,0,0],"id":0,"left_children":[1,3,5,7,9,11,13,15,17,19,21,23,25,-1,27,29,31,33,35,37,-1,39,41,43,45,47,-1,49,-1,-1,-1,-1,-1,-1,-1,-1,-1,-1,-1,-1,-1,-1,-1,-1,-1,-1,-1,-1,-1,-1,-1],"loss_changes":[1.5141694E3,3.282558E2,4.8788367E2,1.4340085E2,4.744359E1,8.347125E1,3.49729E1,8.188263E0,5.137629E1,1.280983E1,2.8807663E1,2.3365013E1,3.7919495E1,0E0,2.5076294E0,7.216568E0,2.9291992E0,1.7000275E1,2.0028362E1,6.050478E0,0E0,1.0009312E1,5.765152E0,1.2764481E1,2.400863E0,1.4935211E1,0E0,4.1882935E0,0E0,0E0,0E0,0E0,0E0,0E0,0E0,0E0,0E0,0E0,0E0,0E0,0E0,0E0,0E0,0E0,0E0,0E0,0E0,0E0,0E0,0E0,0E0],"parents":[2147483647,0,0,1,1,2,2,3,3,4,4,5,5,6,6,7,7,8,8,9,9,10,10,11,11,12,12,14,14,15,15,16,16,17,17,18,18,19,19,21,21,22,22,23,23,24,24,25,25,27,27],"right_children":[2,4,6,8,10,12,14,16,18,20,22,24,26,-1,28,30,32,34,36,38,-1,40,42,44,46,48,-1,50,-1,-1,-1,-1,-1,-1,-1,-1,-1,-1,-1,-1,-1,-1,-1,-1,-1,-1,-1,-1,-1,-1,-1],"split_conditions":[4.55E0,3.18E-1,3.08E-1,6.2E-1,3.5E1,1.044E1,1.56E-1,1E-45,5.5E-2,1.505E0,5.76E-1,1E-45,1.2E1,1.5872966E-1,2.193E0,1.505E0,1.4E1,3.29E-1,1.805E0,3E0,5.3120967E-2,2E0,1.2E1,1E0,2E0,7.49E-1,1.1502506E-1,1.74E-1,1.3734755E-1,-1.883786E-2,1.3478856E-2,-2.7050769E-2,-2.1699589E-2,-2.9916952E-3,-1.4003473E-2,4.935493E-3,3.6208846E-2,3.6180676E-3,3.2510128E-2,1.7163424E-2,5.2168477E-2,9.1359675E-2,3.361082E-2,1.6785374E-2,3.584147E-2,-6.1519234E-4,-2.439032E-2,2.1565193E-2,6.0221758E-2,3.3826184E-2,9.239625E-2],"split_indices":[16,12,12,16,5,16,6,0,19,18,12,0,10,0,18,18,5,6,18,7,0,7,4,8,15,18,0,6,0,0,0,0,0,0,0,0,0,0,0,0,0,0,0,0,0,0,0,0,0,0,0],"split_type":[0,0,0,0,0,0,0,1,0,0,0,1,0,0,0,0,0,0,0,0,0,0,0,0,0,0,0,0,0,0,0,0,0,0,0,0,0,0,0,0,0,0,0,0,0,0,0,0,0,0,0],"sum_hessian":[1.9490935E3,1.6359993E3,3.1309427E2,1.5317847E3,1.0421454E2,2.3220125E2,8.089301E1,8.128734E2,7.189113E2,4.675571E1,5.7458824E1,1.5953275E2,7.266852E1,2.5687475E1,5.520554E1,2.0144388E2,6.114295E2,5.365077E2,1.8240361E2,4.1460487E1,5.295225E0,3.3461315E1,2.3997509E1,1.4578769E2,1.3745052E1,6.19654E1,1.07031145E1,4.5629066E1,9.576471E0,1.96374E2,5.069896E0,4.0818298E2,2.032465E2,2.051618E2,3.313459E2,1.63476E2,1.8927612E1,3.5263947E1,6.19654E0,1.7350311E1,1.6111004E1,1.8814949E1,5.182561E0,5.8472805E1,8.731488E1,8.900485E0,4.844568E0,1.4759031E1,4.7206367E1,4.2812457E0,4.134782E1],"tree_param":{"num_deleted":"0","num_feature":"20","num_nodes":"51","size_leaf_vector":"1"}},{"base_weights":[3.250942E-3,-2.5120893E-1,2.6371574E0,-5.1719075E-1,8.370178E-1,1.9480567E0,4.093722E0,-5.82432E-1,9.8527896E-1,4.9743277E-1,2.5855362E0,9.9204195E-1,2.5381596E0,1.00536635E-2,1.321088E-1,-6.87437E-1,-1.2074066E-1,6.205392E-1,1.8756032E0,1.974991E-1,1.3583207E0,1.2243701E0,3.0510755E0,4.3732578E-1,1.5927688E0,1.12201534E-1,2.037785E0,-1.2330636E-2,-2.3847554E-2,1.6564805E-2,-1.0048416E-2,3.4172658E-2,5.918032E-3,7.293531E-2,3.349048E-2,-3.5830971E-3,1.6846113E-2,8.1126474E-2,3.0665606E-2,6.422163E-2,9.097433E-3,5.1543344E-2,1.1189185E-1,2.5639575E-2,-1.0117264E-2,-1.1716469E-3,5.996333E-2,4.3569103E-2,8.4161796E-2],"categories":[0,1,2,3,6,7,0,1,3,6,7,0,1,2,3,6,7,0,1,2,3,6,0,1,2,3,5,6,7,0,1,2,3,3,7],"categories_nodes":[12,15,16,17,20,21,23],"categories_segments":[0,6,11,17,22,29,33],"categories_sizes":[6,5,6,5,7,4,2],"default_left":[0,0,0,0,0,0,0,0,0,0,0,0,1,0,0,1,1,1,0,0,1,1,0,1,0,0,0,0,0,0,0,0,0,0,0,0,0,0,0,0,0,0,0,0,0,0,0,0,0],"id":1,"left_children":[1,3,5,7,9,11,13,15,17,19,21,23,25,-1,-1,27,29,31,33,35,37,39,41,43,45,-1,47,-1,-1,-1,-1,-1,-1,-1,-1,-1,-1,-1,-1,-1,-1,-1,-1,-1,-1,-1,-1,-1,-1],"loss_changes":[1.3145656E3,5.18577E2,1.5748718E2,1.4215823E2,2.0647508E2,6.3290985E1,5.9573914E1,6.6733215E1,1.735419E1,7.622593E1,2.8508667E1,1.51049385E1,2.9023743E1,0E0,0E0,3.273462E1,3.75751E1,9.643484E0,1.5846939E0,2.5841736E1,2.9068085E1,1.3735378E1,2.4245056E1,9.788136E0,1.5402271E1,0E0,1.7182678E1,0E0,0E0,0E0,0E0,0E0,0E0,0E0,0E0,0E0,0E0,0E0,0E0,0E0,0E0,0E0,0E0,0E0,0E0,0E0,0E0,0E0,0E0],"parents":[2147483647,0,0,1,1,2,2,3,3,4,4,5,5,6,6,7,7,8,8,9,9,10,10,11,11,12,12,15,15,16,16,17,17,18,18,19,19,20,20,21,21,22,22,23,23,24,24,26,26],"right_children":[2,4,6,8,10,12,14,16,18,20,22,24,26,-1,-1,28,30,32,34,36,38,40,42,44,46,-1,48,-1,-1,-1,-1,-1,-1,-1,-1,-1,-1,-1,-1,-1,-1,-1,-1,-1,-1,-1,-1,-1,-1],"split_conditions":[1.958E0,4.7E1,3.154E0,1E0,1E0,2E0,3.5E1,1E0,1.42E-1,1.9E1,5.49E-1,1.1E1,1E-45,1.00536635E-2,1.321088E-1,1E-45,1E-45,1E-45,4.55E-1,1.2E1,1E-45,1E-45,1.7E1,1E-45,2E-1,1.12201534E-1,1.049E0,-1.2330636E-2,-2.3847554E-2,1.6564805E-2,-1.0048416E-2,3.4172658E-2,5.918032E-3,7.293531E-2,3.349048E-2,-3.5830971E-3,1.6846113E-2,8.1126474E-2,3.0665606E-2,6.422163E-2,9.097433E-3,5.1543344E-2,1.1189185E-1,2.5639575E-2,-1.0117264E-2,-1.1716469E-3,5.996333E-2,4.3569103E-2,8.4161796E-2],"split_indices":[17,5,17,13,13,7,5,17,19,4,18,4,2,0,0,2,2,2,19,4,2,2,4,2,18,0,18,0,0,0,0,0,0,0,0,0,0,0,0,0,0,0,0,0,0,0,0,0,0],"split_type":[0,0,0,0,0,0,0,0,0,0,0,0,1,0,0,1,1,1,0,0,1,1,0,1,0,0,0,0,0,0,0,0,0,0,0,0,0,0,0,0,0,0,0,0,0,0,0,0,0],"sum_hessian":[1.9574069E3,1.7866127E3,1.7079414E2,1.4365452E3,3.500675E2,1.1911546E2,5.1678684E1,1.3779362E3,5.8608986E1,2.9528778E2,5.4779743E1,4.75091E1,7.160636E1,4.253537E0,4.7425148E1,1.1218173E3,2.5611893E2,4.3983994E1,1.4624991E1,2.2081468E2,7.447309E1,1.5810946E1,3.8968796E1,2.6497282E1,2.1011822E1,1.7242098E1,5.436426E1,3.1678168E2,8.050356E2,6.1082172E1,1.9503674E2,1.8247137E1,2.5736858E1,5.902092E0,8.722899E0,1.187625E2,1.02052185E2,1.2066834E1,6.2406254E1,6.5985274E0,9.2124195E0,1.5529703E1,2.3439093E1,1.7085215E1,9.412067E0,4.5464463E0,1.6465374E1,3.4122105E1,2.0242157E1],"tree_param":{"num_deleted":"0","num_feature":"20","num_nodes":"49","size_leaf_vector":"1"}},{"base_weights":[-8.417287E-3,-3.7649244E-1,1.7569711E0,-4.8935083E-1,1.1557156E0,1.1905682E0,3.2273283E0,-5.5750954E-1,9.6816033E-1,1.9709349E0,6.0380536E-1,8.474644E-1,2.5443041E0,2.516278E0,1.1655753E-1,-7.761233E-1,-2.9563925E-1,1.5614156E0,5.2464336E-1,2.5995407E-1,2.3419917E0,3.663608E-1,7.336706E-2,1.7108923E0,4.1847602E-1,1.3402377E0,2.9570494E0,1.9335705E0,9.047853E-2,-1.5727911E-2,-2.6107715E-2,1.9549448E-3,-1.4248013E-2,-2.3260748E-3,5.7168975E-2,3.7291933E-2,-1.8144756E-3,1.6739583E-2,-3.6046419E-3,2.1195216E-2,7.907165E-2,-1.6490478E-3,2.2412203E-2,3.4813426E-2,7.252605E-2,8.730227E-3,5.5781852E-2,5.152583E-2,1.0092763E-2,4.1677225E-2,1.0126714E-1,6.6869795E-2,3.5605066E-2],"categories":[0,3,6,7,0,1,2,3,6,0,1,3,7,0,1,3,6,7,0,1,3,7,0,1,4],"categories_nodes":[4,8,11,15,16,18],"categories_segments":[0,4,9,13,18,22],"categories_sizes":[4,5,4,5,4,3],"default_left":[0,0,0,0,1,0,0,0,1,0,0,1,0,0,0,1,1,0,1,0,0,0,0,0,0,0,0,0,0,0,0,0,0,0,0,0,0,0,0,0,0,0,0,0,0,0,0,0,0,0,0,0,0],"id":2,"left_children":[1,3,5,7,9,11,13,15,17,19,21,23,25,27,-1,29,31,33,35,37,39,41,-1,43,45,47,49,51,-1,-1,-1,-1,-1,-1,-1,-1,-1,-1,-1,-1,-1,-1,-1,-1,-1,-1,-1,-1,-1,-1,-1,-1,-1],"loss_changes":[1.2695293E3,2.80683E2,2.7303162E2,1.5080084E2,4.778798E1,1.10181244E2,2.3751465E1,8.203995E1,1.6269825E1,2.6799393E1,2.854573E1,7.252168E1,1.6347992E1,2.942627E0,0E0,1.7679016E1,4.2686054E1,1.6150307E1,1.7787971E1,1.2799087E0,1.3577316E1,1.0316374E1,0E0,1.9914978E1,2.3903383E1,4.9521313E0,1.3401276E1,1.0470886E0,0E0,0E0,0E0,0E0,0E0,0E0,0E0,0E0,0E0,0E0,0E0,0E0,0E0,0E0,0E0,0E0,0E0,0E0,0E0,0E0,0E0,0E0,0E0,0E0,0E0],"parents":[2147483647,0,0,1,1,2,2,3,3,4,4,5,5,6,6,7,7,8,8,9,9,10,10,11,11,12,12,13,13,15,15,16,16,17,17,18,18,19,19,20,20,21,21,23,23,24,24,25,25,26,26,27,27],"right_children":[2,4,6,8,10,12,14,16,18,20,22,24,26,28,-1,30,32,34,36,38,40,42,-1,44,46,48,50,52,-1,-1,-1,-1,-1,-1,-1,-1,-1,-1,-1,-1,-1,-1,-1,-1,-1,-1,-1,-1,-1,-1,-1,-1,-1],"split_conditions":[4.55E0,3.18E-1,4.42E-1,1E0,1E-45,1E0,3E0,6.2E-1,1E-45,9E-1,1E0,1E-45,7E-1,2E0,1.1655753E-1,1E-45,1E-45,5E0,1E-45,1.8E1,2E-1,5.09E-1,7.336706E-2,8.85E0,1.1E1,8.85E0,1.7E1,9E0,9.047853E-2,-1.5727911E-2,-2.6107715E-2,1.9549448E-3,-1.4248013E-2,-2.3260748E-3,5.7168975E-2,3.7291933E-2,-1.8144756E-3,1.6739583E-2,-3.6046419E-3,2.1195216E-2,7.907165E-2,-1.6490478E-3,2.2412203E-2,3.4813426E-2,7.252605E-2,8.730227E-3,5.5781852E-2,5.152583E-2,1.0092763E-2,4.1677225E-2,1.0126714E-1,6.6869795E-2,3.5605066E-2],"split_indices":[16,12,12,13,2,13,10,16,2,16,13,2,18,15,0,2,2,4,1,5,18,12,0,16,10,16,4,3,0,0,0,0,0,0,0,0,0,0,0,0,0,0,0,0,0,0,0,0,0,0,0,0,0],"split_type":[0,0,0,0,1,0,0,0,1,0,0,1,0,0,0,1,1,0,1,0,0,0,0,0,0,0,0,0,0,0,0,0,0,0,0,0,0,0,0,0,0,0,0,0,0,0,0,0,0,0,0,0,0],"sum_hessian":[1.9497004E3,1.614631E3,3.3506946E2,1.5051284E3,1.09502525E2,2.4450285E2,9.056662E1,1.4390673E3,6.606126E1,4.2130257E1,6.737227E1,1.9765845E2,4.6844406E1,4.8163296E1,4.2403324E1,7.8217053E2,6.5689667E2,2.6103601E1,3.9957653E1,8.114522E0,3.4015736E1,6.180239E1,5.5698752E0,6.362452E1,1.3403392E2,1.4127044E1,3.2717365E1,2.6730328E1,2.1432968E1,2.1637857E2,5.65792E2,2.1849016E2,4.384065E2,4.7997274E0,2.1303873E1,1.6926418E1,2.3031235E1,4.0237174E0,4.090805E0,6.215956E0,2.7799778E1,3.0148607E1,3.1653782E1,3.8735554E1,2.4888964E1,1.2534905E2,8.68487E0,9.234268E0,4.892775E0,8.713787E0,2.4003576E1,1.6308428E1,1.04219E1],"tree_param":{"num_deleted":"0","num_feature":"20","num_nodes":"53","size_leaf_vector":"1"}},{"base_weights":[-5.287993E-3,-3.9259732E-1,1.5602592E0,-5.0012565E-1,1.0403192E0,1.0229954E0,2.9336047E0,-5.6231284E-1,8.5191375E-1,1.6924481E0,6.023389E-1,6.752117E-1,2.329628E0,2.3288789E0,1.0731477E-1,-7.727399E-1,-3.002073E-1,1.4519591E0,3.908081E-1,1.3831681E-1,2.0501678E0,3.6118343E-1,7.597609E-2,1.7520374E0,3.7347016E-1,1.3078889E0,2.7284055E0,2.4821646E0,1.1178141E0,-1.6241081E-2,-2.5802832E-2,3.1419501E-3,-1.4022986E-2,-2.006184E-3,5.3113613E-2,1.2971265E-3,3.5164557E-2,1.1296851E-2,-4.169465E-3,2.389979E-2,6.661248E-2,-7.3461764E-5,2.127372E-2,3.4587763E-2,7.748909E-2,2.356313E-2,2.3603681E-3,4.867931E-2,6.1802464E-3,4.4406388E-2,9.982023E-2,8.4653676E-2,5.2636646E-2,7.7653006E-3,4.9962707E-2],"categories":[0,3,6,7,0,1,2,3,6,0,1,3,5,6,7,0,1,3,6,7,0,1,2,3,7,0,1,3,4,7,8,10,11,13,14,15,17,18,19,20,23,24,25,26,27,30,31,32],"categories_nodes":[4,8,11,15,16,24],"categories_segments":[0,4,9,15,20,25],"categories_sizes":[4,5,6,5,5,23],"default_left":[0,0,0,0,1,0,0,0,1,0,0,1,0,0,0,1,1,0,0,0,0,0,0,0,1,0,0,0,0,0,0,0,0,0,0,0,0,0,0,0,0,0,0,0,0,0,0,0,0,0,0,0,0,0,0],"id":3,"left_children":[1,3,5,7,9,11,13,15,17,19,21,23,25,27,-1,29,31,33,35,37,39,41,-1,43,45,47,49,51,53,-1,-1,-1,-1,-1,-1,-1,-1,-1,-1,-1,-1,-1,-1,-1,-1,-1,-1,-1,-1,-1,-1,-1,-1,-1,-1],"loss_changes":[1.1933337E3,2.4413293E2,2.8199908E2,1.2446524E2,2.9601807E1,1.2574573E2,2.5637268E1,7.705759E1,1.6956944E1,2.3562622E1,3.0463423E1,7.239305E1,1.6824432E1,5.916992E0,0E0,1.48003845E1,4.2703842E1,1.3625122E1,1.0683115E1,7.8287697E-1,3.9608002E0,8.10133E0,0E0,1.849031E1,2.1702606E1,6.389473E0,2.0395508E1,3.2415771E0,4.113549E0,0E0,0E0,0E0,0E0,0E0,0E0,0E0,0E0,0E0,0E0,0E0,0E0,0E0,0E0,0E0,0E0,0E0,0E0,0E0,0E0,0E0,0E0,0E0,0E0,0E0,0E0],"parents":[2147483647,0,0,1,1,2,2,3,3,4,4,5,5,6,6,7,7,8,8,9,9,10,10,11,11,12,12,13,13,15,15,16,16,17,17,18,18,19,19,20,20,21,21,23,23,24,24,25,25,26,26,27,27,28,28],"right_children":[2,4,6,8,10,12,14,16,18,20,22,24,26,28,-1,30,32,34,36,38,40,42,-1,44,46,48,50,52,54,-1,-1,-1,-1,-1,-1,-1,-1,-1,-1,-1,-1,-1,-1,-1,-1,-1,-1,-1,-1,-1,-1,-1,-1,-1,-1],"split_conditions":[4.17E0,1.626E0,1.958E0,1E0,1E-45,1E0,3.154E0,6.3E-1,1E-45,2.5E1,1E0,1E-45,7.47E-1,3.12E-1,1.0731477E-1,1E-45,1E-45,5.8E-1,2E0,3.99E-1,2E-1,3.5E1,7.597609E-2,9.19E0,1E-45,8.85E0,1.9E1,9.2E0,3.51E-1,-1.6241081E-2,-2.5802832E-2,3.1419501E-3,-1.4022986E-2,-2.006184E-3,5.3113613E-2,1.2971265E-3,3.5164557E-2,1.1296851E-2,-4.169465E-3,2.389979E-2,6.661248E-2,-7.3461764E-5,2.127372E-2,3.4587763E-2,7.748909E-2,2.356313E-2,2.3603681E-3,4.867931E-2,6.1802464E-3,4.4406388E-2,9.982023E-2,8.4653676E-2,5.2636646E-2,7.7653006E-3,4.9962707E-2],"split_indices":[16,17,17,13,2,13,17,16,2,5,13,2,18,6,0,2,2,16,10,6,18,5,0,16,0,16,4,3,6,0,0,0,0,0,0,0,0,0,0,0,0,0,0,0,0,0,0,0,0,0,0,0,0,0,0],"split_type":[0,0,0,0,1,0,0,0,1,0,0,1,0,0,0,1,1,0,0,0,0,0,0,0,1,0,0,0,0,0,0,0,0,0,0,0,0,0,0,0,0,0,0,0,0,0,0,0,0,0,0,0,0,0,0],"sum_hessian":[1.964037E3,1.5757114E3,3.8832547E2,1.4669325E3,1.0877901E2,2.8163672E2,1.06688774E2,1.4035446E3,6.3387974E1,4.14033E1,6.73757E1,2.248282E2,5.6808514E1,5.9766148E1,4.6922626E1,7.763603E2,6.271842E2,2.5676693E1,3.771128E1,8.265732E0,3.313757E1,6.2003357E1,5.372346E0,4.7106457E1,1.7772174E2,1.8350569E1,3.8457943E1,5.118808E1,8.578066E0,2.1672621E2,5.596341E2,1.8352452E2,4.4365967E2,4.724873E0,2.0951818E1,2.7561558E1,1.0149722E1,4.0608644E0,4.2048674E0,5.320735E0,2.7816833E1,3.1289093E1,3.0714264E1,3.0145918E1,1.696054E1,7.273984E1,1.049819E2,1.3538141E1,4.812428E0,1.4721293E1,2.3736649E1,3.0974058E1,2.0214024E1,4.486297E0,4.0917687E0],"tree_param":{"num_deleted":"0","num_feature":"20","num_nodes":"55","size_leaf_vector":"1"}},{"base_weights":[-7.149611E-3,-3.8164634E-1,1.4901407E0,-4.7841904E-1,1.2278637E0,9.6332395E-1,2.8319337E0,-5.412041E-1,8.555974E-1,-1.2196523E-1,1.4372885E0,6.49799E-1,2.1221445E0,1.0757376E-1,2.3992548E0,-6.51545E-1,-7.894543E-2,3.9429164E-1,1.369538E0,5.6056785E-3,-1.5340495E-2,2.0971375E0,9.9349123E-1,1.428555E0,2.3538128E-1,1.4530416E0,8.526341E-2,1.8711824E0,8.3312325E-2,-1.21074105E-2,-2.3229605E-2,1.40497675E-2,-8.047796E-3,2.7297815E-2,-1.8138892E-3,2.485909E-2,6.367198E-2,3.325546E-2,7.291911E-2,3.9045542E-2,1.4206581E-4,3.1424213E-2,6.606788E-2,3.8585498E-3,3.890464E-2,5.0865248E-2,1.4339144E-2,6.193971E-2,2.0227825E-2],"categories":[0,2,3,6,7,0,1,3,7,0,1,3,7,0,1,2,3,6,7,0,1,4,1,2,4,5,0,4],"categories_nodes":[10,11,15,16,17,18,22],"categories_segments":[0,5,9,13,19,22,26],"categories_sizes":[5,4,4,6,3,4,2],"default_left":[0,0,0,0,0,0,0,0,0,0,1,1,0,0,0,1,1,1,1,0,0,0,1,0,0,0,0,0,0,0,0,0,0,0,0,0,0,0,0,0,0,0,0,0,0,0,0,0,0],"id":4,"left_children":[1,3,5,7,9,11,13,15,17,19,21,23,25,-1,27,29,31,33,35,-1,-1,37,39,41,43,45,-1,47,-1,-1,-1,-1,-1,-1,-1,-1,-1,-1,-1,-1,-1,-1,-1,-1,-1,-1,-1,-1,-1],"loss_changes":[1.0957865E3,2.4465283E2,2.7092657E2,1.245484E2,2.5571487E1,1.00348175E2,1.8412476E1,7.1859436E1,1.4832779E1,1.8537418E0,1.8496323E1,7.234239E1,2.0426971E1,0E0,4.655609E0,3.4041718E1,2.8654984E1,9.062592E0,9.0819435E0,0E0,0E0,4.2782593E0,1.5237576E1,1.843869E1,1.6671215E1,6.6436768E0,0E0,5.9202423E0,0E0,0E0,0E0,0E0,0E0,0E0,0E0,0E0,0E0,0E0,0E0,0E0,0E0,0E0,0E0,0E0,0E0,0E0,0E0,0E0,0E0],"parents":[2147483647,0,0,1,1,2,2,3,3,4,4,5,5,6,6,7,7,8,8,9,9,10,10,11,11,12,12,14,14,15,15,16,16,17,17,18,18,21,21,22,22,23,23,24,24,25,25,27,27],"right_children":[2,4,6,8,10,12,14,16,18,20,22,24,26,-1,28,30,32,34,36,-1,-1,38,40,42,44,46,-1,48,-1,-1,-1,-1,-1,-1,-1,-1,-1,-1,-1,-1,-1,-1,-1,-1,-1,-1,-1,-1,-1],"split_conditions":[4.17E0,1.924E0,2E0,1E0,7.1E-1,1E0,1.51E-1,1E0,1E0,5.42E-1,1E-45,1E-45,4E0,1.0757376E-1,2.822E0,1E-45,1E-45,1E-45,1E-45,5.6056785E-3,-1.5340495E-2,2.204E0,1E-45,1.044E1,1E1,3E0,8.526341E-2,2.3E1,8.3312325E-2,-1.21074105E-2,-2.3229605E-2,1.40497675E-2,-8.047796E-3,2.7297815E-2,-1.8138892E-3,2.485909E-2,6.367198E-2,3.325546E-2,7.291911E-2,3.9045542E-2,1.4206581E-4,3.1424213E-2,6.606788E-2,3.8585498E-3,3.890464E-2,5.0865248E-2,1.4339144E-2,6.193971E-2,2.0227825E-2],"split_indices":[16,17,17,13,16,13,6,17,8,12,2,2,10,0,17,2,2,1,2,0,0,17,1,16,10,15,0,4,0,0,0,0,0,0,0,0,0,0,0,0,0,0,0,0,0,0,0,0,0],"split_type":[0,0,0,0,0,0,0,0,0,0,1,1,0,0,0,1,1,1,1,0,0,0,1,0,0,0,0,0,0,0,0,0,0,0,0,0,0,0,0,0,0,0,0,0,0,0,0,0,0],"sum_hessian":[1.9501848E3,1.5611947E3,3.8899005E2,1.4739766E3,8.721818E1,2.8178937E2,1.0720067E2,1.4088578E3,6.511881E1,1.1826539E1,7.539164E1,2.2424123E2,5.7548157E1,3.3776646E1,7.342402E1,1.1367073E3,2.7215048E2,3.617923E1,2.893958E1,7.17572E0,4.6508183E0,2.7320282E1,4.8071358E1,7.6184425E1,1.480568E2,3.2956474E1,2.4591682E1,3.558832E1,3.78357E1,3.7927444E2,7.574328E2,6.918952E1,2.0296098E2,1.6016575E1,2.0162655E1,1.9285208E1,9.654372E0,9.072789E0,1.8247492E1,3.6170525E1,1.1900836E1,5.419765E1,2.1986778E1,1.3656319E2,1.1493602E1,2.5209908E1,7.7465663E0,2.9387997E1,6.200323E0],"tree_param":{"num_deleted":"0","num_feature":"20","num_nodes":"49","size_leaf_vector":"1"}},{"base_weights":[4.299523E-3,-3.99639E-1,1.1838322E0,-6.104861E-1,2.6675355E-1,7.564572E-1,2.4734905E0,-2.8957933E-1,-7.385059E-1,2.7126478E-2,1.1602646E0,3.998614E-1,1.5805639E0,2.161903E0,3.3718925E0,-6.908312E-1,-3.991915E-2,-5.7657915E-1,-8.671089E-1,5.872218E-1,-1.4893155E-1,4.6004635E-1,1.7081738E0,7.8569245E-1,4.331743E-2,1.322811E0,8.758438E-2,8.46245E-2,1.6849201E0,1.1088039E-1,3.8876504E-2,-2.2177687E-2,3.823308E-4,1.3027195E-2,-5.3960844E-3,-1.2572599E-2,-2.1652592E-2,-1.8253783E-2,-2.7334176E-2,3.9434828E-2,7.1955556E-3,-1.10887615E-2,7.0081805E-3,2.9172197E-3,4.3886654E-2,4.504509E-3,5.87666E-2,1.1934657E-2,3.704482E-2,-8.187067E-3,8.394534E-3,6.424071E-2,2.6256425E-2,3.3417348E-2,6.4581566E-2],"categories":[0,1,3,6,7,0,1,3,0,2,3,7,3,4,0,1,2,3,4,5,7,12,13,15,17,21,22,24,26,32,0,1,2,3,5,6,7,8,9,10,11,12,14,17,18,19,20,21,22,23,24,25,26,27,30,31,0,2,3,6,7,0,1,3,7],"categories_nodes":[3,11,13,14,17,18,19,25],"categories_segments":[0,5,8,12,14,30,56,61],"categories_sizes":[5,3,4,2,16,26,5,4],"default_left":[0,0,0,1,0,0,0,0,0,0,0,1,0,1,1,0,0,1,1,1,0,0,0,0,0,1,0,0,0,0,0,0,0,0,0,0,0,0,0,0,0,0,0,0,0,0,0,0,0,0,0,0,0,0,0],"id":5,"left_children":[1,3,5,7,9,11,13,15,17,19,21,23,25,27,29,31,33,35,37,39,41,43,45,47,49,51,-1,-1,53,-1,-1,-1,-1,-1,-1,-1,-1,-1,-1,-1,-1,-1,-1,-1,-1,-1,-1,-1,-1,-1,-1,-1,-1,-1,-1],"loss_changes":[9.266324E2,2.0388197E2,2.697024E2,4.4809357E1,7.478921E1,1.0908952E2,1.9741394E1,3.1730679E1,1.5364471E1,2.756023E1,2.6773705E1,3.635642E1,3.118222E1,2.0856506E1,9.260529E0,4.1611023E0,1.3276628E1,7.4846725E0,3.8339844E0,1.6251068E1,1.8145864E1,1.2511776E1,1.5314484E1,2.1150398E1,1.0602504E1,3.222766E1,0E0,0E0,1.1499817E1,0E0,0E0,0E0,0E0,0E0,0E0,0E0,0E0,0E0,0E0,0E0,0E0,0E0,0E0,0E0,0E0,0E0,0E0,0E0,0E0,0E0,0E0,0E0,0E0,0E0,0E0],"parents":[2147483647,0,0,1,1,2,2,3,3,4,4,5,5,6,6,7,7,8,8,9,9,10,10,11,11,12,12,13,13,14,14,15,15,16,16,17,17,18,18,19,19,20,20,21,21,22,22,23,23,24,24,25,25,28,28],"right_children":[2,4,6,8,10,12,14,16,18,20,22,24,26,28,30,32,34,36,38,40,42,44,46,48,50,52,-1,-1,54,-1,-1,-1,-1,-1,-1,-1,-1,-1,-1,-1,-1,-1,-1,-1,-1,-1,-1,-1,-1,-1,-1,-1,-1,-1,-1],"split_conditions":[4.7E1,1E0,2E0,1E-45,2E0,1.9E1,2.249E0,1.2E1,4.18E-1,2.97E-1,3.5E1,1E-45,1.2E1,1E-45,1E-45,7E0,3.12E-1,1E-45,1E-45,1E-45,1E0,3E0,2E-1,1.2E1,5.4E1,1E-45,8.758438E-2,8.46245E-2,1E0,1.1088039E-1,3.8876504E-2,-2.2177687E-2,3.823308E-4,1.3027195E-2,-5.3960844E-3,-1.2572599E-2,-2.1652592E-2,-1.8253783E-2,-2.7334176E-2,3.9434828E-2,7.1955556E-3,-1.10887615E-2,7.0081805E-3,2.9172197E-3,4.3886654E-2,4.504509E-3,5.87666E-2,1.1934657E-2,3.704482E-2,-8.187067E-3,8.394534E-3,6.424071E-2,2.6256425E-2,3.3417348E-2,6.4581566E-2],"split_indices":[5,17,17,2,17,4,18,5,6,6,5,2,10,2,1,4,6,0,0,2,8,7,18,4,5,2,0,0,10,0,0,0,0,0,0,0,0,0,0,0,0,0,0,0,0,0,0,0,0,0,0,0,0,0,0],"split_type":[0,0,0,1,0,0,0,0,0,0,0,1,0,1,1,0,0,1,1,1,0,0,0,0,0,1,0,0,0,0,0,0,0,0,0,0,0,0,0,0,0,0,0,0,0,0,0,0,0,0,0,0,0,0,0],"sum_hessian":[1.9408464E3,1.4467277E3,4.9411874E2,1.0991299E3,3.475977E2,3.7351434E2,1.206044E2,3.152979E2,7.8383203E2,2.7571542E2,7.188227E1,2.627788E2,1.10735535E2,9.460564E1,2.5998764E1,1.1957835E2,1.9571957E2,3.5181775E2,4.3201428E2,6.482288E1,2.1089253E2,3.3170383E1,3.8711884E1,1.2504988E2,1.3772894E2,9.619341E1,1.4542122E1,3.5599716E1,5.9005924E1,2.1137884E1,4.860879E0,1.117832E2,7.795142E0,4.3644417E1,1.5207515E2,1.7247797E2,1.7933978E2,6.715586E1,3.648584E2,1.9153605E1,4.5669277E1,1.3377974E2,7.711279E1,2.596923E1,7.2011523E0,5.809194E0,3.290269E1,6.912522E1,5.592466E1,5.8800373E1,7.8928566E1,3.133007E1,6.486334E1,2.9616962E1,2.9388964E1],"tree_param":{"num_deleted":"0","num_feature":"20","num_nodes":"55","size_leaf_vector":"1"}},{"base_weights":[2.8721087E-3,-4.104075E-1,1.110551E0,-5.946108E-1,2.0226027E-1,6.840545E-1,2.2736301E0,-6.382542E-1,5.8609986E-1,-3.4677568E-1,4.5997983E-1,4.2140707E-1,1.7435467E0,1.8475688E0,2.8580463E0,-8.052294E-1,-5.012954E-1,1.3495909E0,2.1787746E-2,-5.2194583E-1,4.108997E-2,2.9881516E-1,1.4505208E0,1.1077796E-2,7.1868515E-1,1.0171173E0,2.304476E0,2.051271E0,7.3946637E-1,3.654903E-2,8.890834E-2,-2.0927185E-2,-2.5773276E-2,-8.091769E-3,-1.7136732E-2,1.4541279E-2,6.360341E-2,-1.7347064E-2,1.0051214E-2,-1.1652748E-2,-2.4070945E-2,2.3156332E-2,-5.951841E-3,5.531419E-3,4.2228412E-2,5.342062E-2,2.5770718E-3,1.4646261E-2,-5.8804485E-3,1.84522E-2,6.2772855E-2,3.9861247E-2,-5.5241515E-3,4.824855E-2,8.687825E-2,2.5355062E-2,6.675364E-2,5.514417E-3,4.076674E-2],"categories":[0,4],"categories_nodes":[25],"categories_segments":[0],"categories_sizes":[2],"default_left":[0,0,0,0,0,0,0,0,0,0,0,0,0,0,0,0,0,0,0,0,0,0,0,0,0,1,0,0,0,0,0,0,0,0,0,0,0,0,0,0,0,0,0,0,0,0,0,0,0,0,0,0,0,0,0,0,0,0,0],"id":6,"left_children":[1,3,5,7,9,11,13,15,17,19,21,23,25,27,29,31,33,35,37,39,41,43,45,47,49,51,53,55,57,-1,-1,-1,-1,-1,-1,-1,-1,-1,-1,-1,-1,-1,-1,-1,-1,-1,-1,-1,-1,-1,-1,-1,-1,-1,-1,-1,-1,-1,-1],"loss_changes":[8.86671E2,1.5943451E2,2.579582E2,5.666046E1,4.6668503E1,1.0648564E2,2.438556E1,2.3143463E1,1.7054403E1,7.229946E0,3.485789E1,3.822753E1,2.6455338E1,1.6565521E1,2.3894653E0,1.5197754E0,9.094955E0,9.172424E0,5.0623584E0,2.110569E0,6.3904877E0,2.4221785E1,1.3569397E1,1.3406826E1,2.3298721E1,1.4294323E1,7.793091E0,1.1381561E1,5.217512E0,0E0,0E0,0E0,0E0,0E0,0E0,0E0,0E0,0E0,0E0,0E0,0E0,0E0,0E0,0E0,0E0,0E0,0E0,0E0,0E0,0E0,0E0,0E0,0E0,0E0,0E0,0E0,0E0,0E0,0E0],"parents":[2147483647,0,0,1,1,2,2,3,3,4,4,5,5,6,6,7,7,8,8,9,9,10,10,11,11,12,12,13,13,14,14,15,15,16,16,17,17,18,18,19,19,20,20,21,21,22,22,23,23,24,24,25,25,26,26,27,27,28,28],"right_children":[2,4,6,8,10,12,14,16,18,20,22,24,26,28,30,32,34,36,38,40,42,44,46,48,50,52,54,56,58,-1,-1,-1,-1,-1,-1,-1,-1,-1,-1,-1,-1,-1,-1,-1,-1,-1,-1,-1,-1,-1,-1,-1,-1,-1,-1,-1,-1,-1,-1],"split_conditions":[3.15E0,1E0,2E0,1E0,2.3E1,1E0,5E0,2.5E-1,3.29E-1,1E0,2.392E0,5.16E0,8.49E-1,3.18E-1,4.55E0,4.66E-1,3.22E-1,1E0,6.7E-1,4.73E-1,3.17E-1,1E0,5E0,3.3E0,1.2E1,1E-45,4E0,4E-1,3.6E-1,3.654903E-2,8.890834E-2,-2.0927185E-2,-2.5773276E-2,-8.091769E-3,-1.7136732E-2,1.4541279E-2,6.360341E-2,-1.7347064E-2,1.0051214E-2,-1.1652748E-2,-2.4070945E-2,2.3156332E-2,-5.951841E-3,5.531419E-3,4.2228412E-2,5.342062E-2,2.5770718E-3,1.4646261E-2,-5.8804485E-3,1.84522E-2,6.2772855E-2,3.9861247E-2,-5.5241515E-3,4.824855E-2,8.687825E-2,2.5355062E-2,6.675364E-2,5.514417E-3,4.076674E-2],"split_indices":[16,17,17,13,5,13,10,16,6,8,17,16,18,6,16,6,6,8,16,6,6,13,10,3,10,1,10,18,6,0,0,0,0,0,0,0,0,0,0,0,0,0,0,0,0,0,0,0,0,0,0,0,0,0,0,0,0,0,0],"split_type":[0,0,0,0,0,0,0,0,0,0,0,0,0,0,0,0,0,0,0,0,0,0,0,0,0,1,0,0,0,0,0,0,0,0,0,0,0,0,0,0,0,0,0,0,0,0,0,0,0,0,0,0,0,0,0,0,0,0,0],"sum_hessian":[1.9328972E3,1.4086013E3,5.24296E2,1.0830369E3,3.2556445E2,3.8594702E2,1.3834898E2,1.0453169E3,3.771991E1,1.03781395E2,2.2178305E2,3.1151752E2,7.4429504E1,8.482857E1,5.3520424E1,4.6664355E2,5.7867334E2,1.4848018E1,2.2871893E1,7.101694E1,3.276446E1,1.9298672E2,2.8796318E1,1.3174544E2,1.7977208E2,3.4882103E1,3.9547398E1,7.021808E1,1.4610486E1,4.7542434E0,4.876618E1,1.6495085E2,3.0169272E2,1.3646939E2,4.4220395E2,8.530733E0,6.3172846E0,7.2647457E0,1.5607147E1,5.1341232E1,1.9675703E1,6.9895835E0,2.577488E1,1.7704701E2,1.5939714E1,2.2695414E1,6.1009045E0,3.9053448E1,9.2691986E1,1.6985648E2,9.915614E0,2.7529173E1,7.3529296E0,2.1582176E1,1.7965221E1,1.0323165E1,5.9894913E1,9.06883E0,5.541657E0],"tree_param":{"num_deleted":"0","num_feature":"20","num_nodes":"59","size_leaf_vector":"1"}},{"base_weights":[1.7677447E-2,-3.2890922E-1,1.3278712E0,-5.5358356E-1,3.217975E-1,8.7328416E-1,2.3379827E0,-6.016842E-1,5.692475E-1,6.0102385E-2,1.119797E0,5.9481984E-1,1.8335551E0,1.9106188E0,8.416485E-2,-7.586453E-1,-3.7672752E-1,-1.8476767E-2,7.663081E-1,-5.107273E-1,2.3859717E-1,-5.3314627E-3,1.3612874E0,4.6936876E-1,1.6545907E0,6.056107E-1,2.0707967E0,1.1717833E0,2.1095436E0,-2.455342E-2,-1.8872537E-2,-4.580773E-3,-1.581234E-2,-6.9427504E-3,2.726567E-2,8.40494E-3,-1.7161896E-2,4.0077823E-3,3.3543132E-2,-7.928176E-3,1.3980134E-2,4.834387E-2,1.5918052E-2,2.3506952E-3,2.1092782E-2,1.929831E-2,6.507291E-2,2.6096912E-2,6.7639514E-3,4.6822138E-2,7.529784E-2,9.541707E-3,4.192872E-2,4.1038573E-2,7.0308015E-2],"categories":[0,4],"categories_nodes":[22],"categories_segments":[0],"categories_sizes":[2],"default_left":[0,0,0,0,0,0,0,0,0,0,0,0,0,0,0,0,0,0,0,0,0,0,1,0,0,0,0,0,0,0,0,0,0,0,0,0,0,0,0,0,0,0,0,0,0,0,0,0,0,0,0,0,0,0,0],"id":7,"left_children":[1,3,5,7,9,11,13,15,17,19,21,23,25,27,-1,29,31,-1,33,35,37,39,41,43,45,47,49,51,53,-1,-1,-1,-1,-1,-1,-1,-1,-1,-1,-1,-1,-1,-1,-1,-1,-1,-1,-1,-1,-1,-1,-1,-1,-1,-1],"loss_changes":[8.843814E2,2.2553357E2,1.8299323E2,6.2560425E1,8.268395E1,7.380318E1,1.4304749E1,3.8253357E1,1.2175057E1,3.0887756E1,2.659378E1,2.8126549E1,1.5820999E1,5.595001E0,0E0,3.973053E0,1.519455E1,0E0,6.411854E0,3.8268108E0,2.0986275E1,2.5991695E0,1.5028473E1,1.8387302E1,9.092144E0,9.152446E-1,3.790802E0,2.9111576E0,2.9605103E0,0E0,0E0,0E0,0E0,0E0,0E0,0E0,0E0,0E0,0E0,0E0,0E0,0E0,0E0,0E0,0E0,0E0,0E0,0E0,0E0,0E0,0E0,0E0,0E0,0E0,0E0],"parents":[2147483647,0,0,1,1,2,2,3,3,4,4,5,5,6,6,7,7,8,8,9,9,10,10,11,11,12,12,13,13,15,15,16,16,18,18,19,19,20,20,21,21,22,22,23,23,24,24,25,25,26,26,27,27,28,28],"right_children":[2,4,6,8,10,12,14,16,18,20,22,24,26,28,-1,30,32,-1,34,36,38,40,42,44,46,48,50,52,54,-1,-1,-1,-1,-1,-1,-1,-1,-1,-1,-1,-1,-1,-1,-1,-1,-1,-1,-1,-1,-1,-1,-1,-1,-1,-1],"split_conditions":[4.35E0,1E0,1.958E0,1E0,1.924E0,1E0,3.154E0,6.1E-1,1E-1,5.2E-1,2.6E1,1E1,5.47E-1,2E0,8.416485E-2,2.1E-1,3.37E-1,-1.8476767E-2,4.7E-1,7E-1,1.805E0,2.78E-1,1E-45,1E0,1.196E0,2E0,4E0,3.5E0,1E0,-2.455342E-2,-1.8872537E-2,-4.580773E-3,-1.581234E-2,-6.9427504E-3,2.726567E-2,8.40494E-3,-1.7161896E-2,4.0077823E-3,3.3543132E-2,-7.928176E-3,1.3980134E-2,4.834387E-2,1.5918052E-2,2.3506952E-3,2.1092782E-2,1.929831E-2,6.507291E-2,2.6096912E-2,6.7639514E-3,4.6822138E-2,7.529784E-2,9.541707E-3,4.192872E-2,4.1038573E-2,7.0308015E-2],"split_indices":[16,17,17,13,17,13,17,16,18,16,5,10,18,7,0,16,6,0,16,3,18,19,1,8,18,7,10,3,8,0,0,0,0,0,0,0,0,0,0,0,0,0,0,0,0,0,0,0,0,0,0,0,0,0,0],"split_type":[0,0,0,0,0,0,0,0,0,0,0,0,0,0,0,0,0,0,0,0,0,0,1,0,0,0,0,0,0,0,0,0,0,0,0,0,0,0,0,0,0,0,0,0,0,0,0,0,0,0,0,0,0,0,0],"sum_hessian":[1.9436425E3,1.5382308E3,4.054116E2,1.1436521E3,3.9457874E2,2.821589E2,1.232527E2,1.0975623E3,4.6089912E1,2.9875574E2,9.5823006E1,2.2124112E2,6.0917786E1,6.970619E1,5.354651E1,6.436898E2,4.538724E2,5.9650135E0,4.0124897E1,7.027914E1,2.2847661E2,1.7278156E1,7.854485E1,2.0040396E2,2.083716E1,1.1014257E1,4.9903526E1,1.770997E1,5.199622E1,4.3313242E2,2.1055742E2,1.838907E2,2.699817E2,4.860164E0,3.5264732E1,4.5445337E0,6.5734604E1,2.061662E2,2.2310404E1,1.1718762E1,5.559394E0,5.8920208E1,1.9624643E1,7.597347E1,1.2443049E2,8.543875E0,1.2293284E1,4.977282E0,6.0369754E0,2.730111E1,2.2602419E1,4.71247E0,1.2997501E1,1.5757834E1,3.6238384E1],"tree_param":{"num_deleted":"0","num_feature":"20","num_nodes":"55","size_leaf_vector":"1"}},{"base_weights":[9.7879E-3,-3.321597E-1,1.2014712E0,-4.4066158E-1,9.1281426E-1,8.206744E-1,2.0606532E0,-5.0230145E-1,8.1216604E-1,1.5135678E0,4.871589E-1,5.5489177E-1,1.7666035E0,8.087884E-2,1.7162923E0,-7.135561E-1,-2.48222E-1,-1.2200034E-2,9.8866504E-1,7.034392E-1,1.8295763E0,2.860716E-1,6.1855365E-2,1.1911738E0,2.2333056E-1,2.4643905E0,1.2505909E0,1.8582222E0,8.4718484E-1,-1.416869E-2,-2.4227446E-2,4.7196723E-3,-1.2774795E-2,4.19407E-2,1.3535601E-2,2.7683865E-2,3.83451E-4,1.1186455E-2,6.001037E-2,4.6114186E-3,4.5240466E-2,2.1385096E-2,5.319067E-2,1.0511563E-2,-1.5057921E-2,8.1185095E-2,2.4213277E-2,9.825616E-3,5.2745387E-2,1.2652901E-2,5.8637388E-2,8.676614E-3,3.7295744E-2],"categories":[0,3,6,7,0,1,3,7,0,1,2,3,6,0,1,3,6,7,0,1,2,3,7,0,1,2,3,4,5,6,1,3,16,23,26],"categories_nodes":[4,11,12,15,16,19,24],"categories_segments":[0,4,8,13,18,23,30],"categories_sizes":[4,4,5,5,5,7,5],"default_left":[0,0,0,0,1,0,0,0,0,0,0,1,1,0,0,1,1,0,0,1,0,0,0,0,1,0,0,0,0,0,0,0,0,0,0,0,0,0,0,0,0,0,0,0,0,0,0,0,0,0,0,0,0],"id":8,"left_children":[1,3,5,7,9,11,13,15,17,19,21,23,25,-1,27,29,31,-1,33,35,37,39,-1,41,43,45,47,49,51,-1,-1,-1,-1,-1,-1,-1,-1,-1,-1,-1,-1,-1,-1,-1,-1,-1,-1,-1,-1,-1,-1,-1,-1],"loss_changes":[7.893515E2,2.0413408E2,1.3792468E2,1.0784177E2,2.954815E1,7.41138E1,1.9473999E1,7.061313E1,1.4949402E1,1.0063034E1,2.2238638E1,4.991707E1,1.7404434E1,0E0,8.034576E0,1.5589813E1,4.3588043E1,0E0,1.1504063E1,2.5671978E0,7.0309677E0,1.0518745E1,0E0,2.0144234E1,1.5065304E1,5.955948E0,1.8381523E1,8.906189E0,2.9051876E0,0E0,0E0,0E0,0E0,0E0,0E0,0E0,0E0,0E0,0E0,0E0,0E0,0E0,0E0,0E0,0E0,0E0,0E0,0E0,0E0,0E0,0E0,0E0,0E0],"parents":[2147483647,0,0,1,1,2,2,3,3,4,4,5,5,6,6,7,7,8,8,9,9,10,10,11,11,12,12,14,14,15,15,16,16,18,18,19,19,20,20,21,21,23,23,24,24,25,25,26,26,27,27,28,28],"right_children":[2,4,6,8,10,12,14,16,18,20,22,24,26,-1,28,30,32,-1,34,36,38,40,-1,42,44,46,48,50,52,-1,-1,-1,-1,-1,-1,-1,-1,-1,-1,-1,-1,-1,-1,-1,-1,-1,-1,-1,-1,-1,-1,-1,-1],"split_conditions":[4.17E0,1.628E0,1.984E0,1E0,1E-45,1E0,1.51E-1,6.4E-1,1E-1,3E-1,1E0,1E-45,1E-45,8.087884E-2,3.12E-1,1E-45,1E-45,-1.2200034E-2,3.45E-1,1E-45,8.9E-1,6.99E-1,6.1855365E-2,1.2E-1,1E-45,3E-1,1.7E1,1.61E-1,3E0,-1.416869E-2,-2.4227446E-2,4.7196723E-3,-1.2774795E-2,4.19407E-2,1.3535601E-2,2.7683865E-2,3.83451E-4,1.1186455E-2,6.001037E-2,4.6114186E-3,4.5240466E-2,2.1385096E-2,5.319067E-2,1.0511563E-2,-1.5057921E-2,8.1185095E-2,2.4213277E-2,9.825616E-3,5.2745387E-2,1.2652901E-2,5.8637388E-2,8.676614E-3,3.7295744E-2],"split_indices":[16,17,17,13,2,13,6,16,18,18,13,2,2,0,6,2,2,0,6,0,16,12,0,19,0,6,4,6,7,0,0,0,0,0,0,0,0,0,0,0,0,0,0,0,0,0,0,0,0,0,0,0,0],"split_type":[0,0,0,0,1,0,0,0,0,0,0,1,1,0,0,1,1,0,0,1,0,0,0,0,1,0,0,0,0,0,0,0,0,0,0,0,0,0,0,0,0,0,0,0,0,0,0,0,0,0,0,0,0],"sum_hessian":[1.9331324E3,1.5032305E3,4.2990198E2,1.3839119E3,1.1931851E2,3.0058884E2,1.2931314E2,1.3201575E3,6.3754402E1,4.736196E1,7.195655E1,2.3713342E2,6.3455406E1,4.0653717E1,8.865943E1,7.1885114E2,6.0130634E2,7.734536E0,5.6019867E1,1.5100892E1,3.226107E1,6.590396E1,6.05259E0,7.9460205E1,1.5767322E2,2.3765894E1,3.9689514E1,7.425674E1,1.4402689E1,2.0496452E2,5.1388666E2,1.8320413E2,4.181022E2,2.9982338E1,2.6037529E1,1.0950678E1,4.150214E0,4.053246E0,2.8207825E1,6.1494617E1,4.40934E0,4.6051533E1,3.3408672E1,1.3504851E2,2.2624704E1,1.9635494E1,4.130399E0,1.5249033E1,2.444048E1,5.3440385E0,6.8912704E1,7.415335E0,6.987354E0],"tree_param":{"num_deleted":"0","num_feature":"20","num_nodes":"53","size_leaf_vector":"1"}},{"base_weights":[1.0120208E-2,-3.1350642E-1,1.2230656E0,-6.872058E-1,2.179544E-2,8.47054E-1,2.0141299E0,-4.5575675E-1,-7.780147E-1,-1.1008785E-1,1.0449442E0,1.4430101E0,5.3468627E-1,7.696923E-2,1.6444808E0,-5.9775436E-1,-5.7229806E-2,-7.918431E-1,2.412944E-3,-2.129013E-1,9.18113E-1,1.6077709E0,6.889571E-1,8.253215E-1,1.7623831E0,3.1577012E-1,1.2213546E0,1.2408171E0,2.1511505E0,-8.273816E-3,-2.1128109E-2,-1.0010245E-2,6.458694E-3,-2.4176473E-2,-4.4398946E-3,4.281297E-3,-1.2156989E-2,4.8500128E-2,1.2356054E-2,6.078568E-3,5.5757497E-2,8.200785E-3,3.1766493E-2,-6.9909687E-3,3.4033377E-2,5.572937E-2,1.1851721E-2,7.207953E-3,4.8715014E-2,1.4468654E-2,4.9471233E-2,2.8589463E-2,6.0651682E-2,7.546974E-2,3.8771622E-2],"categories":[0,1,3,6,7,0,1,3,7,0,1,3,7,0,2,3,6,7,0,1,3,4,0,1,3,7,0,1,2,3,6,0,3,4],"categories_nodes":[3,5,6,10,15,19,20,28],"categories_segments":[0,5,9,13,18,22,26,31],"categories_sizes":[5,4,4,5,4,4,5,3],"default_left":[0,0,0,1,0,1,1,0,0,0,1,0,0,0,0,1,0,0,0,1,1,0,0,0,0,0,0,0,1,0,0,0,0,0,0,0,0,0,0,0,0,0,0,0,0,0,0,0,0,0,0,0,0,0,0],"id":9,"left_children":[1,3,5,7,9,11,13,15,17,19,21,23,25,-1,27,29,31,33,-1,35,37,39,41,43,45,47,49,51,53,-1,-1,-1,-1,-1,-1,-1,-1,-1,-1,-1,-1,-1,-1,-1,-1,-1,-1,-1,-1,-1,-1,-1,-1,-1,-1],"loss_changes":[7.5837823E2,1.9113022E2,1.1762012E2,1.4451263E1,1.0896094E2,5.0442413E1,1.7991821E1,1.1707325E1,6.243683E0,7.603876E1,1.6257233E1,1.5803726E1,2.7248589E1,0E0,1.1676117E1,4.8657684E0,4.4286375E0,4.3465576E0,0E0,4.4721046E1,2.180595E1,1.130748E1,8.641813E0,1.2336403E1,6.447342E0,1.3445456E1,1.2431892E1,7.616295E0,4.191345E0,0E0,0E0,0E0,0E0,0E0,0E0,0E0,0E0,0E0,0E0,0E0,0E0,0E0,0E0,0E0,0E0,0E0,0E0,0E0,0E0,0E0,0E0,0E0,0E0,0E0,0E0],"parents":[2147483647,0,0,1,1,2,2,3,3,4,4,5,5,6,6,7,7,8,8,9,9,10,10,11,11,12,12,14,14,15,15,16,16,17,17,19,19,20,20,21,21,22,22,23,23,24,24,25,25,26,26,27,27,28,28],"right_children":[2,4,6,8,10,12,14,16,18,20,22,24,26,-1,28,30,32,34,-1,36,38,40,42,44,46,48,50,52,54,-1,-1,-1,-1,-1,-1,-1,-1,-1,-1,-1,-1,-1,-1,-1,-1,-1,-1,-1,-1,-1,-1,-1,-1,-1,-1],"split_conditions":[4.55E0,6.2E-1,3.08E-1,1E-45,2E0,1E-45,1E-45,3.2E-1,1E0,1E0,1E-45,1E0,1E0,7.696923E-2,5E0,1E-45,4.23E-1,1.57E0,2.412944E-3,1E-45,1E-45,2E-1,5.47E-1,5E-1,3.34E-1,1.3E1,8.49E-1,1E0,1E-45,-8.273816E-3,-2.1128109E-2,-1.0010245E-2,6.458694E-3,-2.4176473E-2,-4.4398946E-3,4.281297E-3,-1.2156989E-2,4.8500128E-2,1.2356054E-2,6.078568E-3,5.5757497E-2,8.200785E-3,3.1766493E-2,-6.9909687E-3,3.4033377E-2,5.572937E-2,1.1851721E-2,7.207953E-3,4.8715014E-2,1.4468654E-2,4.9471233E-2,2.8589463E-2,6.0651682E-2,7.546974E-2,3.8771622E-2],"split_indices":[16,16,12,2,17,2,2,16,13,13,2,8,13,0,10,1,6,17,0,2,2,18,18,18,6,10,18,13,1,0,0,0,0,0,0,0,0,0,0,0,0,0,0,0,0,0,0,0,0,0,0,0,0,0,0],"split_type":[0,0,0,1,0,1,1,0,0,0,1,0,0,0,0,1,0,0,0,1,1,0,0,0,0,0,0,0,1,0,0,0,0,0,0,0,0,0,0,0,0,0,0,0,0,0,0,0,0,0,0,0,0,0,0],"sum_hessian":[1.9280164E3,1.523116E3,4.0490033E2,7.193215E2,8.0379456E2,2.7725568E2,1.2764467E2,2.0608931E2,5.132322E2,7.135971E2,9.019746E1,9.285724E1,1.8439844E2,4.645419E1,8.119048E1,1.512118E2,5.487751E1,5.0524847E2,7.9837055E0,6.5017017E2,6.3426933E1,3.2221497E1,5.797596E1,3.409113E1,5.876611E1,1.4203583E2,4.2362602E1,4.9027885E1,3.2162594E1,3.93746E1,1.11837204E2,2.7019749E1,2.7857761E1,4.9397385E2,1.1274611E1,2.2839531E2,4.2177484E2,2.4807953E1,3.861898E1,5.427902E0,2.6793596E1,2.894042E1,2.9035538E1,7.8177366E0,2.6273394E1,5.4268017E1,4.4980907E0,1.3652272E2,5.513107E0,1.7088337E1,2.5274263E1,3.906835E1,9.959537E0,1.9869896E1,1.2292699E1],"tree_param":{"num_deleted":"0","num_feature":"20","num_nodes":"55","size_leaf_vector":"1"}},{"base_weights":[-3.3789373E-3,-4.2699718E-1,8.520656E-1,-5.834878E-1,1.15608804E-1,4.981708E-1,1.8132036E0,-6.2073094E-1,4.5195153E-1,-2.872183E-1,4.0839648E-1,2.8282076E-1,1.397522E0,2.245363E0,1.4521174E0,-3.7168533E-1,-7.2303563E-1,9.8598623E-1,8.214808E-2,1.5716983E-3,-4.9395964E-1,8.288241E-1,9.562083E-2,7.8178376E-1,1.702243E-2,1.8383814E0,8.555369E-1,1.358522E0,2.4478993E0,6.530136E-1,1.7433852E0,-1.9366307E-2,-3.4035908E-3,-2.2264881E-2,-8.276767E-5,5.7237586E-3,4.056672E-2,-1.29282195E-2,2.1288589E-2,-4.092831E-3,2.2717064E-2,-1.7549062E-2,5.9486297E-3,3.148872E-2,-3.4750735E-3,-7.604284E-3,1.5115547E-2,9.163477E-3,3.357157E-2,-8.160148E-3,8.893465E-3,2.528724E-2,5.860296E-2,5.5203075E-3,5.2358076E-2,5.5271E-3,5.135744E-2,4.5375627E-2,7.784649E-2,9.2081195E-3,4.76731E-2,3.712209E-2,6.5944925E-2],"categories":[0,3,7,0,1,3,6,7,0,1,2,3,4,5,6,7,8,9,10,11,12,13,14,15,16,17,18,19,0,1,3,6,0,3,7,0,1,3,7,0,2,3,0],"categories_nodes":[6,7,8,9,10,11,12,21],"categories_segments":[0,3,8,28,32,35,39,42],"categories_sizes":[3,5,20,4,3,4,3,1],"default_left":[0,0,0,0,0,0,1,1,1,1,1,1,1,0,0,0,0,0,0,0,0,1,0,0,0,0,0,0,0,0,0,0,0,0,0,0,0,0,0,0,0,0,0,0,0,0,0,0,0,0,0,0,0,0,0,0,0,0,0,0,0,0,0],"id":10,"left_children":[1,3,5,7,9,11,13,15,17,19,21,23,25,27,29,31,33,35,37,39,41,43,45,47,49,51,53,55,57,59,61,-1,-1,-1,-1,-1,-1,-1,-1,-1,-1,-1,-1,-1,-1,-1,-1,-1,-1,-1,-1,-1,-1,-1,-1,-1,-1,-1,-1,-1,-1,-1,-1],"loss_changes":[6.991791E2,1.097048E2,2.1554678E2,3.9195953E1,3.4499027E1,9.019802E1,2.0195557E1,2.412381E1,6.93605E0,7.3723755E0,2.2073187E1,5.057534E1,1.841948E1,6.689728E0,2.0750671E1,2.0075745E1,9.418823E0,3.713747E0,8.150996E0,5.785682E0,4.765152E0,1.5231667E1,1.439314E1,2.0613213E1,2.0430994E1,2.2076263E0,2.5780941E1,6.9646454E0,1.204834E-1,8.622144E0,1.0968994E1,0E0,0E0,0E0,0E0,0E0,0E0,0E0,0E0,0E0,0E0,0E0,0E0,0E0,0E0,0E0,0E0,0E0,0E0,0E0,0E0,0E0,0E0,0E0,0E0,0E0,0E0,0E0,0E0,0E0,0E0,0E0,0E0],"parents":[2147483647,0,0,1,1,2,2,3,3,4,4,5,5,6,6,7,7,8,8,9,9,10,10,11,11,12,12,13,13,14,14,15,15,16,16,17,17,18,18,19,19,20,20,21,21,22,22,23,23,24,24,25,25,26,26,27,27,28,28,29,29,30,30],"right_children":[2,4,6,8,10,12,14,16,18,20,22,24,26,28,30,32,34,36,38,40,42,44,46,48,50,52,54,56,58,60,62,-1,-1,-1,-1,-1,-1,-1,-1,-1,-1,-1,-1,-1,-1,-1,-1,-1,-1,-1,-1,-1,-1,-1,-1,-1,-1,-1,-1,-1,-1,-1,-1],"split_conditions":[2.62E0,1E0,2E0,1E0,9E-1,1E0,1E-45,1E-45,1E-45,1E-45,1E-45,1E-45,1E-45,2E0,5.2E1,3.1E-1,4.8E1,8.2E-1,1E0,1.111E0,3.3E1,1E-45,2E0,4.65E0,5.16E0,4.3E1,4E0,3E0,2.326E0,1E0,4E0,-1.9366307E-2,-3.4035908E-3,-2.2264881E-2,-8.276767E-5,5.7237586E-3,4.056672E-2,-1.29282195E-2,2.1288589E-2,-4.092831E-3,2.2717064E-2,-1.7549062E-2,5.9486297E-3,3.148872E-2,-3.4750735E-3,-7.604284E-3,1.5115547E-2,9.163477E-3,3.357157E-2,-8.160148E-3,8.893465E-3,2.528724E-2,5.860296E-2,5.5203075E-3,5.2358076E-2,5.5271E-3,5.135744E-2,4.5375627E-2,7.784649E-2,9.2081195E-3,4.76731E-2,3.712209E-2,6.5944925E-2],"split_indices":[16,17,17,13,16,13,2,2,0,2,2,2,2,7,5,16,5,16,8,19,5,1,7,16,16,5,10,3,17,13,10,0,0,0,0,0,0,0,0,0,0,0,0,0,0,0,0,0,0,0,0,0,0,0,0,0,0,0,0,0,0,0,0],"split_type":[0,0,0,0,0,0,1,1,1,1,1,1,1,0,0,0,0,0,0,0,0,1,0,0,0,0,0,0,0,0,0,0,0,0,0,0,0,0,0,0,0,0,0,0,0,0,0,0,0,0,0,0,0,0,0,0,0,0,0,0,0,0,0],"sum_hessian":[1.9253903E3,1.2883821E3,6.3700824E2,9.998647E2,2.8851733E2,4.6779932E2,1.6920895E2,9.6592303E2,3.394167E1,1.2145438E2,1.6706296E2,3.7954584E2,8.825347E1,7.227327E1,9.6935684E1,2.8395154E2,6.819715E2,1.2523681E1,2.1417988E1,5.1500233E1,6.995414E1,6.985938E1,9.7203575E1,1.305645E2,2.4898134E2,4.6028923E1,4.222455E1,1.630297E1,5.59703E1,2.7626184E1,6.93095E1,1.3635054E2,1.4760101E2,6.6427094E2,1.7700558E1,4.9083405E0,7.61534E0,1.21275835E1,9.290405E0,4.493341E1,6.566825E0,6.209987E1,7.854271E0,5.6444176E1,1.3415202E1,5.2805405E1,4.439817E1,5.5703747E1,7.4860756E1,1.2241418E2,1.26567154E2,6.493844E0,3.9535076E1,2.5438465E1,1.6786085E1,4.4751644E0,1.1827806E1,1.0667157E1,4.530314E1,2.2108402E1,5.517782E0,3.6330433E1,3.297907E1],"tree_param":{"num_deleted":"0","num_feature":"20","num_nodes":"63","size_leaf_vector":"1"}},{"base_weights":[1.6222306E-2,-4.2141977E-1,7.81281E-1,-6.58203E-1,-1.1569867E-1,4.8319167E-1,1.6103454E0,-6.781952E-1,1.9767764E-1,-2.1435161E-1,7.60962E-1,1.7937838E-1,1.0441395E0,2.215053E0,1.3883445E0,-4.5381546E-1,-7.535432E-1,2.3584161E-2,-2.9633722E-1,9.432667E-2,-3.5261852E-1,3.8033265E-1,1.3737772E0,6.2564725E-1,-6.234645E-2,9.54807E-1,6.811243E-2,2.9552042E-2,7.007186E-2,1.4442277E0,3.8325114E-3,-1.7512957E-2,-9.869762E-4,-2.344481E-2,-1.0605274E-2,5.5234097E-3,-1.9707164E-2,1.9351875E-2,-2.9090303E-3,-4.223557E-3,-1.6562965E-2,2.5968496E-2,-9.42101E-3,2.025828E-2,5.404649E-2,8.337745E-3,3.781561E-2,-4.719571E-3,1.3318025E-2,3.130421E-2,-3.4913863E-3,3.1313334E-2,5.0100673E-2],"categories":[1,2,3,5,7,8,9,11,12,13,14,15,17,19,21,22,23,24,25,29,30,31,32,0,1,2,3,5,6,7,8,10,11,13,14,15,18,20,22,26,27,30,31,32,4,0,2,3,4,5,6,7,8,10,11,12,13,15,16,17,18,20,22,23,24,25,26,27,28,29,30,31,32,1,2,6,8,9,10,11,12,13,18,19,22,25,26,27,28,29,32,0,2,3,23,26],"categories_nodes":[7,11,14,19,20,21,25],"categories_segments":[0,23,44,45,73,91,93],"categories_sizes":[23,21,1,28,18,2,3],"default_left":[0,0,0,0,0,0,0,1,0,0,0,1,0,0,1,0,0,0,0,1,1,1,0,0,0,1,0,0,0,0,0,0,0,0,0,0,0,0,0,0,0,0,0,0,0,0,0,0,0,0,0,0,0],"id":11,"left_children":[1,3,5,7,9,11,13,15,17,19,21,23,25,27,29,31,33,-1,35,37,39,41,43,45,47,49,-1,-1,-1,51,-1,-1,-1,-1,-1,-1,-1,-1,-1,-1,-1,-1,-1,-1,-1,-1,-1,-1,-1,-1,-1,-1,-1],"loss_changes":[6.4466223E2,8.85121E1,1.7158691E2,1.2071289E1,4.6770138E1,8.793473E1,1.8607788E1,1.0719696E1,5.4933434E0,2.0734621E1,1.1727783E1,3.6597984E1,1.5561722E1,2.2506866E0,9.511658E0,9.511436E0,5.0595093E0,0E0,2.1221452E0,1.6074198E1,1.39949875E1,1.2857735E1,3.6070366E0,2.5597805E1,1.0785924E1,1.665062E1,0E0,0E0,0E0,8.639984E0,0E0,0E0,0E0,0E0,0E0,0E0,0E0,0E0,0E0,0E0,0E0,0E0,0E0,0E0,0E0,0E0,0E0,0E0,0E0,0E0,0E0,0E0,0E0],"parents":[2147483647,0,0,1,1,2,2,3,3,4,4,5,5,6,6,7,7,8,8,9,9,10,10,11,11,12,12,13,13,14,14,15,15,16,16,18,18,19,19,20,20,21,21,22,22,23,23,24,24,25,25,29,29],"right_children":[2,4,6,8,10,12,14,16,18,20,22,24,26,28,30,32,34,-1,36,38,40,42,44,46,48,50,-1,-1,-1,52,-1,-1,-1,-1,-1,-1,-1,-1,-1,-1,-1,-1,-1,-1,-1,-1,-1,-1,-1,-1,-1,-1,-1],"split_conditions":[2.33E0,6E-1,1.984E0,1.57E0,1.79E0,6.8E0,1.51E-1,1E-45,4.18E-1,3.29E-1,3.7E1,1E-45,2.847E0,2E0,1E-45,3.2E-1,6.4E-2,2.3584161E-2,2.8E-1,1E-45,1E-45,1E-45,2E0,8.4E-2,1.873E0,1E-45,6.811243E-2,2.9552042E-2,7.007186E-2,6.49E-1,3.8325114E-3,-1.7512957E-2,-9.869762E-4,-2.344481E-2,-1.0605274E-2,5.5234097E-3,-1.9707164E-2,1.9351875E-2,-2.9090303E-3,-4.223557E-3,-1.6562965E-2,2.5968496E-2,-9.42101E-3,2.025828E-2,5.404649E-2,8.337745E-3,3.781561E-2,-4.719571E-3,1.3318025E-2,3.130421E-2,-3.4913863E-3,3.1313334E-2,5.0100673E-2],"split_indices":[16,16,17,17,17,16,6,0,12,6,5,0,18,7,1,16,19,0,16,0,0,1,7,19,18,0,0,0,0,18,0,0,0,0,0,0,0,0,0,0,0,0,0,0,0,0,0,0,0,0,0,0,0],"split_type":[0,0,0,0,0,0,0,1,0,0,0,1,0,0,1,0,0,0,0,1,1,1,0,0,0,1,0,0,0,0,0,0,0,0,0,0,0,0,0,0,0,0,0,0,0,0,0,0,0,0,0,0,0],"sum_hessian":[1.9214221E3,1.2228212E3,6.9860095E2,6.8780505E2,5.350161E2,5.16176E2,1.8242494E2,6.725114E2,1.5293677E1,4.822574E2,5.275871E1,3.3654202E2,1.7963397E2,4.416598E1,1.3825896E2,1.7259244E2,4.9991898E2,6.439918E0,8.85376E0,1.4938771E2,3.3286966E2,3.4544083E1,1.8214626E1,1.1712711E2,2.1941492E2,1.7075215E2,8.881828E0,5.583368E0,3.858261E1,1.3211102E2,6.147938E0,1.3128648E2,4.1305958E1,4.6548804E2,3.4430927E1,4.215473E0,4.638286E0,3.7288902E1,1.12098816E2,1.6309082E2,1.6977884E2,2.0043015E1,1.4501068E1,8.876896E0,9.337729E0,7.753593E1,3.9591183E1,1.8591742E2,3.3497498E1,1.5774654E2,1.3005615E1,5.1687664E1,8.0423355E1],"tree_param":{"num_deleted":"0","num_feature":"20","num_nodes":"53","size_leaf_vector":"1"}},{"base_weights":[5.184371E-3,-3.0842265E-1,9.9430317E-1,-5.174719E-1,2.6347348E-1,6.833981E-1,1.6770407E0,-5.676294E-1,5.6590474E-1,3.9964307E-2,9.2900085E-1,4.5512375E-1,1.4589599E0,2.1454837E0,1.3726381E0,-2.913684E-1,-6.819591E-1,1.1264337E0,7.0644654E-2,3.0030987E-1,-2.9193074E-1,4.767637E-1,1.2622873E0,9.6917534E-1,1.591118E-1,5.9152234E-1,1.6724976E0,8.369079E-1,7.206812E-2,6.906277E-1,1.5164267E0,-1.8062783E-2,-1.3606617E-3,-2.3950562E-2,-1.5388078E-2,1.4770859E-2,5.036236E-2,-8.3671585E-3,1.8903498E-2,-8.233343E-3,1.4223096E-2,-1.0843078E-2,3.1998318E-2,6.5904194E-3,3.627623E-2,5.4486327E-2,2.4641642E-2,1.7384123E-2,4.385057E-2,1.6419413E-3,3.2950122E-2,2.545016E-2,-4.860799E-3,3.6004946E-2,6.1681587E-2,1.7447828E-3,3.8023576E-2,2.6864631E-2,3.415889E-3,3.858004E-2,6.3018456E-2],"categories":[0,1,3,7,0,1,3,6,7,0,1,2,3,6,0,3,0,1,3,7,0,1,4,0,3,4],"categories_nodes":[6,7,8,9,11,22,29],"categories_segments":[0,4,9,14,16,20,23],"categories_sizes":[4,5,5,2,4,3,3],"default_left":[0,0,0,0,0,0,1,1,1,1,0,1,0,0,0,0,0,0,0,0,0,0,1,0,0,0,0,0,0,1,0,0,0,0,0,0,0,0,0,0,0,0,0,0,0,0,0,0,0,0,0,0,0,0,0,0,0,0,0,0,0],"id":12,"left_children":[1,3,5,7,9,11,13,15,17,19,21,23,25,27,29,31,33,35,37,39,41,43,45,47,49,51,53,55,-1,57,59,-1,-1,-1,-1,-1,-1,-1,-1,-1,-1,-1,-1,-1,-1,-1,-1,-1,-1,-1,-1,-1,-1,-1,-1,-1,-1,-1,-1,-1,-1],"loss_changes":[5.968375E2,1.749315E2,9.602606E1,5.8814026E1,5.8294884E1,5.56138E1,1.45798645E1,3.1950226E1,1.3268943E1,2.573754E1,1.365181E1,3.7945694E1,1.1401093E1,1.3784637E1,6.9826202E0,2.3128077E1,1.3402283E1,6.246273E0,5.790954E0,1.69189E1,1.3146531E1,7.9481173E0,1.0577843E1,1.5862671E1,1.5754433E1,3.635138E0,5.367569E0,3.7961187E0,0E0,2.1343489E0,4.662552E0,0E0,0E0,0E0,0E0,0E0,0E0,0E0,0E0,0E0,0E0,0E0,0E0,0E0,0E0,0E0,0E0,0E0,0E0,0E0,0E0,0E0,0E0,0E0,0E0,0E0,0E0,0E0,0E0,0E0,0E0],"parents":[2147483647,0,0,1,1,2,2,3,3,4,4,5,5,6,6,7,7,8,8,9,9,10,10,11,11,12,12,13,13,14,14,15,15,16,16,17,17,18,18,19,19,20,20,21,21,22,22,23,23,24,24,25,25,26,26,27,27,29,29,30,30],"right_children":[2,4,6,8,10,12,14,16,18,20,22,24,26,28,30,32,34,36,38,40,42,44,46,48,50,52,54,56,-1,58,60,-1,-1,-1,-1,-1,-1,-1,-1,-1,-1,-1,-1,-1,-1,-1,-1,-1,-1,-1,-1,-1,-1,-1,-1,-1,-1,-1,-1,-1,-1],"split_conditions":[4.17E0,1E0,1.984E0,1E0,1.96E0,1E0,1E-45,1E-45,1E-45,1E-45,3.7E1,1E-45,5.49E-1,2E0,1E0,3.1E-1,6.2E-1,1E0,5.47E-1,5.2E-1,2.049E0,2.33E0,1E-45,1.196E0,1E1,8.18E0,1E1,6.26E-1,7.206812E-2,1E-45,9E0,-1.8062783E-2,-1.3606617E-3,-2.3950562E-2,-1.5388078E-2,1.4770859E-2,5.036236E-2,-8.3671585E-3,1.8903498E-2,-8.233343E-3,1.4223096E-2,-1.0843078E-2,3.1998318E-2,6.5904194E-3,3.627623E-2,5.4486327E-2,2.4641642E-2,1.7384123E-2,4.385057E-2,1.6419413E-3,3.2950122E-2,2.545016E-2,-4.860799E-3,3.6004946E-2,6.1681587E-2,1.7447828E-3,3.8023576E-2,2.6864631E-2,3.415889E-3,3.858004E-2,6.3018456E-2],"split_indices":[16,17,17,13,17,13,2,2,2,2,5,2,18,7,15,16,16,8,18,16,18,16,1,18,10,16,16,12,0,1,10,0,0,0,0,0,0,0,0,0,0,0,0,0,0,0,0,0,0,0,0,0,0,0,0,0,0,0,0,0,0],"split_type":[0,0,0,0,0,0,1,1,1,1,0,1,0,0,0,0,0,0,0,0,0,0,1,0,0,0,0,0,0,1,0,0,0,0,0,0,0,0,0,0,0,0,0,0,0,0,0,0,0,0,0,0,0,0,0,0,0,0,0,0,0],"sum_hessian":[1.9200972E3,1.4589146E3,4.6118265E2,1.0685209E3,3.9039365E2,3.1963098E2,1.4155167E2,1.0221501E3,4.6370766E1,2.9383344E2,9.6560234E1,2.4939824E2,7.023276E1,5.0988884E1,9.056278E1,3.0127063E2,7.2087946E2,2.0556417E1,2.5814348E1,1.647726E2,1.2906082E2,4.3031567E1,5.3528664E1,8.947266E1,1.5992558E2,1.5363407E1,5.486935E1,9.761741E0,4.1227142E1,1.778972E1,7.277306E1,1.318473E2,1.6942331E2,4.2249423E2,2.9838522E2,1.1330988E1,9.22543E0,1.6505142E1,9.309205E0,3.7986977E1,1.2678562E2,1.241757E2,4.885126E0,3.37762E1,9.255369E0,2.0958622E1,3.257004E1,5.237972E1,3.7092934E1,1.4583484E2,1.4090744E1,1.1270676E1,4.092731E0,2.8289766E1,2.6579586E1,4.2837205E0,5.47802E0,1.2311582E1,5.478139E0,5.677975E1,1.5993311E1],"tree_param":{"num_deleted":"0","num_feature":"20","num_nodes":"61","size_leaf_vector":"1"}},{"base_weights":[8.534041E-3,-4.3146786E-1,7.1067953E-1,-6.563059E-1,-1.3369294E-1,4.1951287E-1,1.4983606E0,-4.6917567E-1,-7.407311E-1,-3.2842627E-1,2.3720497E-1,1.7003733E-1,8.9748514E-1,1.2821653E0,2.0326688E0,-5.914996E-1,-1.9930135E-1,-7.5797606E-1,5.9993127E-3,-4.5359302E-2,-5.0349987E-1,6.192057E-1,-7.243559E-2,7.473959E-1,2.100884E-2,7.90676E-1,6.4441405E-2,3.3553627E-1,1.3532059E0,6.934706E-3,6.5202154E-2,1.9465523E-3,-1.8343793E-2,-9.789592E-3,1.1279576E-2,-1.6068697E-2,-2.4041453E-2,1.2536883E-2,-8.551198E-3,-1.9214906E-2,-5.517643E-3,7.0915655E-3,3.312122E-2,-8.351716E-3,2.6257204E-2,2.6633078E-2,-2.5009325E-2,-5.946967E-3,9.857092E-3,2.658548E-2,-7.689108E-3,-7.074973E-3,2.3684343E-2,4.6142325E-2,3.0608667E-2],"categories":[1,2,3,5,7,8,9,12,13,14,15,17,19,21,22,23,24,29,30,31,0,2,3,4,5,7,8,11,12,13,15,18,19,22,23,24,25,26,28,29,31,2,3,6,8,9,10,11,13,15,18,20,21,22,25,26,27,28,29,30,31,32,0,1,2,3,4,5,7,8,9,10,11,13,14,15,18,20,21,22,23,24,26,27,29,31,32,19,23,26,0,3,4],"categories_nodes":[3,9,10,11,25,28],"categories_segments":[0,20,41,62,87,90],"categories_sizes":[20,21,21,25,3,3],"default_left":[0,0,0,1,0,0,0,0,0,1,1,1,0,0,0,0,0,0,0,0,0,0,0,0,0,1,0,0,1,0,0,0,0,0,0,0,0,0,0,0,0,0,0,0,0,0,0,0,0,0,0,0,0,0,0],"id":13,"left_children":[1,3,5,7,9,11,13,15,17,19,21,23,25,27,29,31,33,35,-1,37,39,41,43,45,47,49,-1,51,53,-1,-1,-1,-1,-1,-1,-1,-1,-1,-1,-1,-1,-1,-1,-1,-1,-1,-1,-1,-1,-1,-1,-1,-1,-1,-1],"loss_changes":[5.910809E2,7.857205E1,1.6778088E2,9.8845825E0,3.6885197E1,6.419321E1,1.767566E1,6.817253E0,7.7332153E0,1.6521202E1,2.0935532E1,3.0760677E1,2.1318283E1,8.94252E0,1.2600311E1,1.9921455E0,5.335016E0,3.4864502E0,0E0,1.4666536E1,8.798672E0,1.4161022E1,1.983499E1,1.7762283E1,1.9449297E1,1.7816933E1,0E0,3.7142577E0,5.2068176E0,0E0,0E0,0E0,0E0,0E0,0E0,0E0,0E0,0E0,0E0,0E0,0E0,0E0,0E0,0E0,0E0,0E0,0E0,0E0,0E0,0E0,0E0,0E0,0E0,0E0,0E0],"parents":[2147483647,0,0,1,1,2,2,3,3,4,4,5,5,6,6,7,7,8,8,9,9,10,10,11,11,12,12,13,13,14,14,15,15,16,16,17,17,19,19,20,20,21,21,22,22,23,23,24,24,25,25,27,27,28,28],"right_children":[2,4,6,8,10,12,14,16,18,20,22,24,26,28,30,32,34,36,-1,38,40,42,44,46,48,50,-1,52,54,-1,-1,-1,-1,-1,-1,-1,-1,-1,-1,-1,-1,-1,-1,-1,-1,-1,-1,-1,-1,-1,-1,-1,-1,-1,-1],"split_conditions":[2.16E0,6E-1,1.984E0,1E-45,1E0,6.8E0,7.1E1,2.4E-1,3.7E-1,1E-45,1E-45,1E-45,1.4E1,2E-1,7.42E0,3.1E-1,5.08E-1,3.84E-1,5.9993127E-3,3.38E-1,3.6E1,1E0,3E0,5E0,1E0,1E-45,6.4441405E-2,2.66E-1,1E-45,6.934706E-3,6.5202154E-2,1.9465523E-3,-1.8343793E-2,-9.789592E-3,1.1279576E-2,-1.6068697E-2,-2.4041453E-2,1.2536883E-2,-8.551198E-3,-1.9214906E-2,-5.517643E-3,7.0915655E-3,3.312122E-2,-8.351716E-3,2.6257204E-2,2.6633078E-2,-2.5009325E-2,-5.946967E-3,9.857092E-3,2.658548E-2,-7.689108E-3,-7.074973E-3,2.3684343E-2,4.6142325E-2,3.0608667E-2],"split_indices":[16,16,17,0,17,16,5,16,12,0,0,0,10,18,16,6,6,6,0,6,5,8,7,7,17,0,0,6,1,0,0,0,0,0,0,0,0,0,0,0,0,0,0,0,0,0,0,0,0,0,0,0,0,0,0],"split_type":[0,0,0,1,0,0,0,0,0,1,1,1,0,0,0,0,0,0,0,0,0,0,0,0,0,1,0,0,1,0,0,0,0,0,0,0,0,0,0,0,0,0,0,0,0,0,0,0,0,0,0,0,0,0,0],"sum_hessian":[1.9092363E3,1.1741943E3,7.35042E2,6.6766156E2,5.065328E2,5.3890186E2,1.961401E2,2.1164984E2,4.5601172E2,3.322958E2,1.74237E2,3.5586908E2,1.830328E2,1.4447926E2,5.166085E1,1.4399759E2,6.765225E1,4.4818417E2,7.827547E0,1.2794564E2,2.0435017E2,7.710892E1,9.7128075E1,7.136401E1,2.8450507E2,1.7163791E2,1.13948965E1,1.0884729E1,1.3359453E2,4.1263285E0,4.753452E1,4.1167846E0,1.398808E2,5.612573E1,1.15265255E1,7.7558464E1,3.706257E2,4.311866E1,8.482698E1,1.4162846E2,6.272171E1,4.474997E1,3.2358948E1,8.094834E1,1.6179733E1,6.635007E1,5.013943E0,1.6651663E2,1.1798843E2,1.5757124E2,1.4066668E1,5.244511E0,5.6402183E0,8.124084E1,5.23537E1],"tree_param":{"num_deleted":"0","num_feature":"20","num_nodes":"55","size_leaf_vector":"1"}},{"base_weights":[7.662242E-3,-4.128185E-1,6.996511E-1,-6.3785636E-1,-1.2563655E-1,4.339011E-1,1.4096905E0,-3.9874178E-1,-7.3451763E-1,-2.0585227E-1,8.293543E-1,2.5655904E-1,1.1764834E0,1.8427982E0,1.1176673E0,-4.3470722E-1,2.5863543E-2,-7.566505E-1,1.339435E-1,1.8748966E-1,-3.7796968E-1,1.4930437E0,5.0818413E-1,6.869264E-1,1.93508E-2,8.129334E-3,1.2793177E0,1.5156165E-2,1.9554232E0,9.331918E-1,1.9403596E0,-1.4712819E-3,-1.7118344E-2,-1.7034305E-2,-2.5059141E-2,-1.2602623E-2,1.7717786E-2,1.4265933E-2,-9.856996E-3,-1.3684321E-2,8.961861E-3,6.603932E-2,1.1417013E-2,2.1141943E-2,-7.2297594E-3,8.763052E-3,3.0519046E-2,-5.4634856E-3,1.1727979E-2,-9.641139E-3,1.0197744E-2,4.9636353E-2,2.7331542E-2,6.372755E-2,3.6262184E-2,2.2850662E-2,4.5767065E-2,2.2515306E-2,6.727099E-2],"categories":[0,1,3,6,7,0,1,3,7,0,1,3,6,7,0,1,3,4,0,1,3,7,0,1,3,4,0,1,2,5,8,9,11,12,14,17,19,20,21,22,23,25,26,31,32,1,2,9,12,22,23,26,29,31,0,0,1,2,3,0,4],"categories_nodes":[3,6,9,10,11,15,17,19,22,26,28],"categories_segments":[0,5,9,14,18,22,26,45,54,55,59],"categories_sizes":[5,4,5,4,4,4,19,9,1,4,2],"default_left":[0,0,0,1,0,0,1,0,0,1,1,1,0,0,0,1,0,1,0,1,0,0,1,0,0,0,1,0,1,0,0,0,0,0,0,0,0,0,0,0,0,0,0,0,0,0,0,0,0,0,0,0,0,0,0,0,0,0,0],"id":14,"left_children":[1,3,5,7,9,11,13,15,17,19,21,23,25,27,29,31,-1,33,35,37,39,41,43,45,47,49,51,-1,53,55,57,-1,-1,-1,-1,-1,-1,-1,-1,-1,-1,-1,-1,-1,-1,-1,-1,-1,-1,-1,-1,-1,-1,-1,-1,-1,-1,-1,-1],"loss_changes":[5.590198E2,7.707468E1,1.357988E2,1.4889679E1,4.0753822E1,6.936215E1,2.078125E1,9.688498E0,9.321976E0,3.319774E1,7.2807064E0,4.401609E1,1.2217743E1,9.503967E0,1.4996323E1,1.0059013E1,0E0,5.92749E0,3.909057E0,2.260299E1,1.8274948E1,8.117126E0,4.8818884E0,1.9394241E1,2.1117464E1,1.3394275E0,9.920639E0,0E0,3.637085E0,8.24765E0,4.042412E0,0E0,0E0,0E0,0E0,0E0,0E0,0E0,0E0,0E0,0E0,0E0,0E0,0E0,0E0,0E0,0E0,0E0,0E0,0E0,0E0,0E0,0E0,0E0,0E0,0E0,0E0,0E0,0E0],"parents":[2147483647,0,0,1,1,2,2,3,3,4,4,5,5,6,6,7,7,8,8,9,9,10,10,11,11,12,12,13,13,14,14,15,15,17,17,18,18,19,19,20,20,21,21,22,22,23,23,24,24,25,25,26,26,28,28,29,29,30,30],"right_children":[2,4,6,8,10,12,14,16,18,20,22,24,26,28,30,32,-1,34,36,38,40,42,44,46,48,50,52,-1,54,56,58,-1,-1,-1,-1,-1,-1,-1,-1,-1,-1,-1,-1,-1,-1,-1,-1,-1,-1,-1,-1,-1,-1,-1,-1,-1,-1,-1,-1],"split_conditions":[2.33E0,6.2E-1,1.984E0,1E-45,1E0,1E0,1E-45,6.56E-1,1.57E0,1E-45,1E-45,1E-45,2E-1,3E-1,9E0,1E-45,2.5863543E-2,1E-45,4E0,1E-45,1.808E0,8.4E0,1E-45,4.65E0,5.9E1,1E0,1E-45,1.5156165E-2,1E-45,1E0,1.147E0,-1.4712819E-3,-1.7118344E-2,-1.7034305E-2,-2.5059141E-2,-1.2602623E-2,1.7717786E-2,1.4265933E-2,-9.856996E-3,-1.3684321E-2,8.961861E-3,6.603932E-2,1.1417013E-2,2.1141943E-2,-7.2297594E-3,8.763052E-3,3.0519046E-2,-5.4634856E-3,1.1727979E-2,-9.641139E-3,1.0197744E-2,4.9636353E-2,2.7331542E-2,6.372755E-2,3.6262184E-2,2.2850662E-2,4.5767065E-2,2.2515306E-2,6.727099E-2],"split_indices":[16,16,17,2,13,13,2,19,17,2,1,2,18,18,10,1,0,0,4,0,17,3,2,16,5,8,2,0,1,13,18,0,0,0,0,0,0,0,0,0,0,0,0,0,0,0,0,0,0,0,0,0,0,0,0,0,0,0,0],"split_type":[0,0,0,1,0,0,1,0,0,1,1,1,0,0,0,1,0,1,0,1,0,0,1,0,0,0,1,0,1,0,0,0,0,0,0,0,0,0,0,0,0,0,0,0,0,0,0,0,0,0,0,0,0,0,0,0,0,0,0],"sum_hessian":[1.9172562E3,1.1930918E3,7.241645E2,6.6755145E2,5.2554034E2,5.2928754E2,1.9487692E2,1.951218E2,4.7242966E2,4.8626477E2,3.9275566E1,4.2942426E2,9.986327E1,7.42032E1,1.2067373E2,1.909845E2,4.137287E0,4.6094E2,1.1489661E1,1.4795738E2,3.383074E2,1.0428281E1,2.8847284E1,1.5123912E2,2.7818515E2,8.253141E0,9.161013E1,6.6147327E0,6.758847E1,1.0205759E2,1.8616142E1,5.047369E1,1.4051082E2,1.4036848E2,3.205715E2,5.263653E0,6.226008E0,9.5057335E1,5.2900055E1,3.0385675E2,3.4450653E1,5.1756606E0,5.2526207E0,2.2946016E1,5.901268E0,7.061585E1,8.062327E1,1.8104475E2,9.71404E1,4.1724176E0,4.0807242E0,4.1916107E1,4.9694023E1,5.2115185E1,1.5473284E1,8.268929E1,1.9368292E1,5.17961E0,1.3436533E1],"tree_param":{"num_deleted":"0","num_feature":"20","num_nodes":"59","size_leaf_vector":"1"}},{"base_weights":[1.0826263E-2,-4.0099388E-1,6.986248E-1,-6.5092736E-1,-1.10147886E-1,4.4127053E-1,1.5009216E0,-4.160027E-1,-7.1941274E-1,-1.8880731E-1,8.1011647E-1,2.707997E-1,1.0457048E0,2.520987E-1,1.5592245E0,-5.73908E-1,-8.267786E-2,-7.6130515E-1,-4.0920237E-1,-3.7749937E-1,1.6047457E-1,1.2732139E0,5.00971E-1,1.5539442E-1,8.3535194E-1,8.702104E-1,6.447625E-2,-1.368679E-3,1.4089015E-2,1.6735493E0,8.519374E-1,-9.9377055E-3,-2.0051055E-2,-6.931325E-3,2.208495E-2,-1.8851282E-2,-2.477718E-2,-1.5327698E-2,4.1487615E-4,-2.2432664E-3,-1.4938914E-2,1.4762233E-2,-4.4053905E-3,4.712778E-2,1.985424E-2,6.8442046E-4,2.7859708E-2,1.9694349E-2,4.808868E-4,-5.275932E-4,2.8477931E-2,1.9847384E-2,4.042845E-2,3.740109E-2,5.522068E-2,-2.4311696E-3,3.219348E-2],"categories":[0,1,2,3,5,6,7,8,9,10,11,12,13,14,17,19,21,22,23,24,30,31,32,0,1,2,3,4,5,6,7,8,9,10,11,12,13,14,15,16,17,18,19,0,1,2,3,4,5,7,8,11,13,15,16,19,20,21,22,23,24,25,26,27,28,29,31,2,3,6,8,9,10,11,13,15,17,20,21,22,25,27,28,29,30,31,32,0,1,2,3,5,6,7,8,9,10,11,13,14,15,18,20,21,22,23,26,27,29,30,31],"categories_nodes":[3,10,19,20,23],"categories_segments":[0,23,43,67,87],"categories_sizes":[23,20,24,20,24],"default_left":[0,0,0,1,0,0,0,0,0,0,1,0,0,0,0,0,0,0,0,1,1,0,0,1,0,0,0,0,0,0,0,0,0,0,0,0,0,0,0,0,0,0,0,0,0,0,0,0,0,0,0,0,0,0,0,0,0],"id":15,"left_children":[1,3,5,7,9,11,13,15,17,19,21,23,25,27,29,31,33,35,37,39,41,43,45,47,49,51,-1,-1,-1,53,55,-1,-1,-1,-1,-1,-1,-1,-1,-1,-1,-1,-1,-1,-1,-1,-1,-1,-1,-1,-1,-1,-1,-1,-1,-1,-1],"loss_changes":[5.407759E2,8.666611E1,1.46305E2,9.728424E0,4.0432987E1,5.5505516E1,1.1796661E1,7.7803936E0,5.7999115E0,3.3885727E1,5.0276794E0,2.7571394E1,1.9307938E1,6.965914E-1,1.0468048E1,1.8765945E0,6.4672346E0,2.6813507E0,2.730628E0,1.2077038E1,1.8599314E1,8.9281654E-1,6.03143E0,2.491821E1,7.033184E0,8.779221E0,0E0,0E0,0E0,5.37912E0,5.744377E0,0E0,0E0,0E0,0E0,0E0,0E0,0E0,0E0,0E0,0E0,0E0,0E0,0E0,0E0,0E0,0E0,0E0,0E0,0E0,0E0,0E0,0E0,0E0,0E0,0E0,0E0],"parents":[2147483647,0,0,1,1,2,2,3,3,4,4,5,5,6,6,7,7,8,8,9,9,10,10,11,11,12,12,13,13,14,14,15,15,16,16,17,17,18,18,19,19,20,20,21,21,22,22,23,23,24,24,25,25,29,29,30,30],"right_children":[2,4,6,8,10,12,14,16,18,20,22,24,26,28,30,32,34,36,38,40,42,44,46,48,50,52,-1,-1,-1,54,56,-1,-1,-1,-1,-1,-1,-1,-1,-1,-1,-1,-1,-1,-1,-1,-1,-1,-1,-1,-1,-1,-1,-1,-1,-1,-1],"split_conditions":[2.43E0,5.9E-1,2.204E0,1E-45,1E0,1E1,2E-1,2.4E-1,1E0,1E0,1E-45,1E0,1.4E1,2.56E-1,3.11E-1,4.51E-1,5.33E-1,4.4E-1,4.6E-1,1E-45,1E-45,2E0,1E0,1E-45,2E-1,1E0,6.447625E-2,-1.368679E-3,1.4089015E-2,1E0,3E0,-9.9377055E-3,-2.0051055E-2,-6.931325E-3,2.208495E-2,-1.8851282E-2,-2.477718E-2,-1.5327698E-2,4.1487615E-4,-2.2432664E-3,-1.4938914E-2,1.4762233E-2,-4.4053905E-3,4.712778E-2,1.985424E-2,6.8442046E-4,2.7859708E-2,1.9694349E-2,4.808868E-4,-5.275932E-4,2.8477931E-2,1.9847384E-2,4.042845E-2,3.740109E-2,5.522068E-2,-2.4311696E-3,3.219348E-2],"split_indices":[16,16,17,0,13,16,18,16,17,17,0,13,10,6,6,6,6,6,16,0,0,7,8,0,18,13,0,0,0,8,3,0,0,0,0,0,0,0,0,0,0,0,0,0,0,0,0,0,0,0,0,0,0,0,0,0,0],"split_type":[0,0,0,1,0,0,0,0,0,0,1,0,0,0,0,0,0,0,0,1,1,0,0,1,0,0,0,0,0,0,0,0,0,0,0,0,0,0,0,0,0,0,0,0,0,0,0,0,0,0,0,0,0,0,0,0,0],"sum_hessian":[1.9052091E3,1.1922074E3,7.130016E2,6.3987006E2,5.523374E2,5.421842E2,1.708174E2,1.4762437E2,4.922457E2,5.1030853E2,4.202886E1,4.2516843E2,1.1701578E2,8.094047E0,1.6272334E2,9.919119E1,4.843318E1,4.311171E2,6.1128605E1,3.312151E2,1.7909344E2,1.4328256E1,2.7700602E1,3.5512466E2,7.004377E1,1.04046104E2,1.2969669E1,4.084499E0,4.009547E0,1.3772878E2,2.4994576E1,3.0319586E1,6.8871605E1,4.2219162E1,6.214018E0,1.4801036E2,2.8310672E2,4.894412E1,1.2184488E1,9.520614E1,2.3600894E2,8.556562E1,9.3527824E1,7.5252485E0,6.8030076E0,1.4073254E1,1.3627349E1,7.566206E1,2.794626E2,8.451677E0,6.1592094E1,7.572503E1,2.8321081E1,4.3515602E1,9.421317E1,5.032724E0,1.9961853E1],"tree_param":{"num_deleted":"0","num_feature":"20","num_nodes":"57","size_leaf_vector":"1"}},{"base_weights":[1.6252356E-2,-3.886511E-1,6.727356E-1,-6.228509E-1,-1.1183663E-1,1.4147253E-1,1.0227388E0,-3.5619736E-1,-7.3014325E-1,-1.9676769E-1,8.9093465E-1,-7.8768566E-2,5.398203E-1,7.900633E-1,1.5256547E0,-5.0138223E-1,4.6768285E-2,-5.49988E-1,-8.386194E-1,-3.8537404E-1,1.4426826E-1,6.241483E-1,4.9359396E-2,3.1375855E-1,-3.047301E-1,3.572976E-1,1.0293796E0,1.3569093E0,5.733363E-1,1.3481702E0,6.716158E-2,-7.961583E-3,-1.9696748E-2,1.5717128E-2,-4.7375597E-3,-1.7357392E-2,7.835404E-3,-2.5596095E-2,-5.4607475E-3,-4.830489E-3,-1.8335337E-2,1.805367E-2,-3.174471E-3,3.561224E-2,7.4005025E-3,4.612122E-3,3.388182E-2,5.7643047E-6,-1.5095903E-2,1.7049424E-2,-2.8002923E-3,4.3108296E-3,3.614992E-2,4.3780643E-2,2.2048127E-2,9.650707E-3,3.267158E-2,5.389377E-2,3.1853154E-2],"categories":[0,1,3,6,7,1,2,5,7,8,9,12,13,14,17,19,20,21,22,23,30,31,1,2,5,0,1,3,7,0,1,2,3,6,7,0,1,4,0,1,3,4,1,2,4,7,13,16,20,22,23,24,25,26,27,28,29,30,31,0,2,3,6,7,0,1,2,3,5,6,0,1,2,3,4,5,6,7,8,9,10,11,12,13,14,15,29,31,1,3,0,1,3,7],"categories_nodes":[3,8,10,11,13,15,16,19,20,21,24,25,29],"categories_segments":[0,5,22,25,29,35,38,42,59,64,70,88,90],"categories_sizes":[5,17,3,4,6,3,4,17,5,6,18,2,4],"default_left":[0,0,0,1,0,0,0,0,1,0,1,1,0,1,0,1,1,0,0,1,1,1,0,0,1,1,0,0,0,1,0,0,0,0,0,0,0,0,0,0,0,0,0,0,0,0,0,0,0,0,0,0,0,0,0,0,0,0,0],"id":16,"left_children":[1,3,5,7,9,11,13,15,17,19,21,23,25,27,29,31,33,35,37,39,41,43,-1,45,47,49,51,53,55,57,-1,-1,-1,-1,-1,-1,-1,-1,-1,-1,-1,-1,-1,-1,-1,-1,-1,-1,-1,-1,-1,-1,-1,-1,-1,-1,-1,-1,-1],"loss_changes":[5.0675684E2,7.630907E1,1.3494067E2,1.774266E1,4.658548E1,2.5629295E1,4.88544E1,1.0990574E1,7.9358215E0,3.2408676E1,6.55019E0,1.6976206E1,8.550152E0,3.575067E1,1.1229736E1,4.6935997E0,5.1828184E0,4.3880424E0,2.362091E0,1.6210342E1,2.0752775E1,6.8097916E0,0E0,8.805227E0,7.3298674E0,7.5955963E0,3.8780346E0,3.1135406E0,2.8258614E1,1.0855698E1,0E0,0E0,0E0,0E0,0E0,0E0,0E0,0E0,0E0,0E0,0E0,0E0,0E0,0E0,0E0,0E0,0E0,0E0,0E0,0E0,0E0,0E0,0E0,0E0,0E0,0E0,0E0,0E0,0E0],"parents":[2147483647,0,0,1,1,2,2,3,3,4,4,5,5,6,6,7,7,8,8,9,9,10,10,11,11,12,12,13,13,14,14,15,15,16,16,17,17,18,18,19,19,20,20,21,21,23,23,24,24,25,25,26,26,27,27,28,28,29,29],"right_children":[2,4,6,8,10,12,14,16,18,20,22,24,26,28,30,32,34,36,38,40,42,44,-1,46,48,50,52,54,56,58,-1,-1,-1,-1,-1,-1,-1,-1,-1,-1,-1,-1,-1,-1,-1,-1,-1,-1,-1,-1,-1,-1,-1,-1,-1,-1,-1,-1,-1],"split_conditions":[2.38E0,5.9E-1,1E0,1E-45,1E0,6.37E0,1E1,3.1E-1,1E-45,1E0,1E-45,1E-45,1E0,1E-45,1.4E1,1E-45,1E-45,3E0,1.57E0,1E-45,1E-45,1E-45,4.9359396E-2,1E0,1E-45,1E-45,1.7E1,1.68E1,2.204E0,1E-45,6.716158E-2,-7.961583E-3,-1.9696748E-2,1.5717128E-2,-4.7375597E-3,-1.7357392E-2,7.835404E-3,-2.5596095E-2,-5.4607475E-3,-4.830489E-3,-1.8335337E-2,1.805367E-2,-3.174471E-3,3.561224E-2,7.4005025E-3,4.612122E-3,3.388182E-2,5.7643047E-6,-1.5095903E-2,1.7049424E-2,-2.8002923E-3,4.3108296E-3,3.614992E-2,4.3780643E-2,2.2048127E-2,9.650707E-3,3.267158E-2,5.389377E-2,3.1853154E-2],"split_indices":[16,16,17,2,13,16,16,16,0,17,2,2,13,2,10,1,1,10,17,0,2,2,0,13,0,2,4,3,17,2,0,0,0,0,0,0,0,0,0,0,0,0,0,0,0,0,0,0,0,0,0,0,0,0,0,0,0,0,0],"split_type":[0,0,0,1,0,0,0,0,1,0,1,1,0,1,0,1,1,0,0,1,1,1,0,0,1,1,0,0,0,1,0,0,0,0,0,0,0,0,0,0,0,0,0,0,0,0,0,0,0,0,0,0,0,0,0,0,0,0,0],"sum_hessian":[1.9024786E3,1.1772156E3,7.2526306E2,6.363389E2,5.408767E2,2.891605E2,4.3610257E2,1.8505692E2,4.5128198E2,5.0012546E2,4.0751244E1,1.8724165E2,1.01918846E2,3.0167407E2,1.3442848E2,1.3568307E2,4.937384E1,1.7416774E2,2.7711426E2,3.2186267E2,1.7826279E2,3.280461E1,7.9466314E0,6.812383E1,1.1911782E2,7.6760025E1,2.5158823E1,8.0529274E1,2.2114482E2,1.1226631E2,2.2162165E1,5.597506E1,7.9708015E1,1.3885931E1,3.548791E1,1.6879169E2,5.3760524E0,2.705071E2,6.6071477E0,1.6316693E2,1.5869576E2,6.2008144E1,1.1625465E2,1.144563E1,2.1358982E1,5.8937702E1,9.186127E0,4.7751286E1,7.136654E1,5.1923927E1,2.4836094E1,4.7648587E0,2.0393965E1,6.682912E1,1.3700158E1,1.5080595E2,7.033887E1,3.9653286E1,7.261303E1],"tree_param":{"num_deleted":"0","num_feature":"20","num_nodes":"59","size_leaf_vector":"1"}},{"base_weights":[3.6509447E-3,-3.9247143E-1,6.241356E-1,-6.1200714E-1,-1.1685735E-1,3.7906536E-1,1.1954132E0,-3.4561706E-1,-7.222257E-1,-1.9653569E-1,8.0354595E-1,1.946009E-1,1.1088241E0,1.725643E0,1.0080117E0,-4.8555517E-1,2.0706052E-2,-7.454179E-1,1.0881673E-2,1.2900953E-1,-3.9221206E-1,1.305297E0,3.6948395E-1,5.65102E-1,-2.17805E-2,1.4938318E0,7.3603237E-1,1.3349494E0,6.55755E-2,1.4837297E0,6.9573796E-1,-1.5734892E-2,8.802268E-3,7.2298297E-3,-1.276641E-2,-1.670558E-2,-2.5866168E-2,-9.93525E-3,1.8862208E-2,1.1007172E-2,-1.01063885E-2,-3.973191E-3,-1.6698994E-2,1.8266616E-2,5.048301E-2,2.8430443E-2,4.7730719E-4,3.595527E-2,1.2005934E-2,-2.8310886E-3,2.9589541E-2,5.190207E-2,1.8391486E-2,7.1594925E-3,4.215674E-2,4.7452744E-2,1.35392435E-2,5.109771E-2,2.0547695E-2,1.48423165E-2,4.523794E-2],"categories":[0,1,3,6,7,0,3,6,7,0,1,4,0,1,3,7,0,1,2,3,0,1,3,7,1,2,5,8,9,11,12,13,14,17,18,19,20,21,23,26,31,32,1,2,9,12,13,22,26,29,31,0,2,4,6,7,8,11,15,16,17,21,22,24,25,26,27,28,29,30,31,0,1,2,4,5,0,1,2,3,4,5,6,7,8,9,10,11,12,13,14,15,16,17,18,19,1,2,3,4,5,6,7,8,10,11,13,14,15,17,19,20,21,22,23,24,25,26,27,28,29,30,31,32,0,4,0,4],"categories_nodes":[3,9,10,11,12,14,17,19,20,21,22,23,27,29],"categories_segments":[0,5,9,12,16,20,24,42,51,71,76,96,124,126],"categories_sizes":[5,4,3,4,4,4,18,9,20,5,20,28,2,2],"default_left":[0,0,0,1,0,0,0,0,0,1,1,1,1,0,1,0,0,1,0,1,1,1,1,1,0,0,0,1,0,1,0,0,0,0,0,0,0,0,0,0,0,0,0,0,0,0,0,0,0,0,0,0,0,0,0,0,0,0,0,0,0],"id":17,"left_children":[1,3,5,7,9,11,13,15,17,19,21,23,25,27,29,31,33,35,37,39,41,43,45,47,49,51,53,55,-1,57,59,-1,-1,-1,-1,-1,-1,-1,-1,-1,-1,-1,-1,-1,-1,-1,-1,-1,-1,-1,-1,-1,-1,-1,-1,-1,-1,-1,-1,-1,-1],"loss_changes":[4.666889E2,6.997916E1,1.02674286E2,1.8427246E1,3.8179333E1,6.965818E1,1.8498291E1,9.887489E0,7.7373657E0,3.0472317E1,8.079773E0,3.35386E1,1.2818375E1,4.043686E0,2.2926254E1,4.535187E0,5.6240835E0,8.734421E0,3.7761686E0,2.0251974E1,1.2592625E1,2.8066463E0,5.092045E0,1.5147511E1,1.9639183E1,8.184547E0,1.8335135E1,6.174099E0,0E0,9.047806E0,1.5701973E1,0E0,0E0,0E0,0E0,0E0,0E0,0E0,0E0,0E0,0E0,0E0,0E0,0E0,0E0,0E0,0E0,0E0,0E0,0E0,0E0,0E0,0E0,0E0,0E0,0E0,0E0,0E0,0E0,0E0,0E0],"parents":[2147483647,0,0,1,1,2,2,3,3,4,4,5,5,6,6,7,7,8,8,9,9,10,10,11,11,12,12,13,13,14,14,15,15,16,16,17,17,18,18,19,19,20,20,21,21,22,22,23,23,24,24,25,25,26,26,27,27,29,29,30,30],"right_children":[2,4,6,8,10,12,14,16,18,20,22,24,26,28,30,32,34,36,38,40,42,44,46,48,50,52,54,56,-1,58,60,-1,-1,-1,-1,-1,-1,-1,-1,-1,-1,-1,-1,-1,-1,-1,-1,-1,-1,-1,-1,-1,-1,-1,-1,-1,-1,-1,-1,-1,-1],"split_conditions":[2.33E0,6.2E-1,1E0,1E-45,1E0,1E0,1.56E-1,3.1E-1,1E0,1E-45,1E-45,1E-45,1E-45,8E0,1E-45,1.09E-1,1.26E1,1E-45,4.1E-1,1E-45,1E-45,1E-45,1E-45,1E-45,1E1,3E-1,4E0,1E-45,6.55755E-2,1E-45,1E0,-1.5734892E-2,8.802268E-3,7.2298297E-3,-1.276641E-2,-1.670558E-2,-2.5866168E-2,-9.93525E-3,1.8862208E-2,1.1007172E-2,-1.01063885E-2,-3.973191E-3,-1.6698994E-2,1.8266616E-2,5.048301E-2,2.8430443E-2,4.7730719E-4,3.595527E-2,1.2005934E-2,-2.8310886E-3,2.9589541E-2,5.190207E-2,1.8391486E-2,7.1594925E-3,4.215674E-2,4.7452744E-2,1.35392435E-2,5.109771E-2,2.0547695E-2,1.48423165E-2,4.523794E-2],"split_indices":[16,16,11,2,13,13,6,16,11,2,1,2,2,10,2,19,3,0,16,0,0,2,0,0,10,6,10,1,0,1,13,0,0,0,0,0,0,0,0,0,0,0,0,0,0,0,0,0,0,0,0,0,0,0,0,0,0,0,0,0,0],"split_type":[0,0,0,1,0,0,0,0,0,1,1,1,1,0,1,0,0,1,0,1,1,1,1,1,0,0,0,1,0,1,0,0,0,0,0,0,0,0,0,0,0,0,0,0,0,0,0,0,0,0,0,0,0,0,0,0,0,0,0,0,0],"sum_hessian":[1.8947533E3,1.1569086E3,7.378447E2,6.4260864E2,5.143E2,5.186697E2,2.1917508E2,1.9048709E2,4.5212152E2,4.7477237E2,3.952761E1,4.160389E2,1.02630745E2,5.294817E1,1.6622691E2,1.3736261E2,5.3124485E1,4.382245E2,1.38970375E1,1.7849428E2,2.962781E2,1.6472267E1,2.3055344E1,1.5220363E2,2.638353E2,4.7529488E1,5.510126E1,3.2856285E1,2.0091885E1,6.2900883E1,1.0332602E2,1.3144489E2,5.917718E0,3.6183025E1,1.6941462E1,1.7201903E2,2.6620544E2,9.542271E0,4.3547664E0,1.1844025E2,6.0054024E1,1.1623963E2,1.8003848E2,7.627018E0,8.845249E0,7.4734516E0,1.5581892E1,2.8850657E1,1.2335297E2,2.4780466E2,1.603064E1,3.5956894E1,1.1572593E1,3.3164627E1,2.1936632E1,2.4447731E1,8.408555E0,4.7564693E1,1.5336191E1,8.540827E1,1.7917753E1],"tree_param":{"num_deleted":"0","num_feature":"20","num_nodes":"61","size_leaf_vector":"1"}},{"base_weights":[8.171305E-3,-3.788687E-1,5.689155E-1,-5.091374E-1,6.7101635E-2,3.2476047E-1,1.1600531E0,-2.3362651E-1,-6.262896E-1,-6.450286E-2,7.0624465E-1,8.900209E-2,7.510653E-1,1.5343801E0,9.159188E-1,-5.099144E-1,1.2740025E-2,-2.747446E-1,-6.9216084E-1,3.263967E-1,-2.5655395E-1,2.6486358E-1,1.2142282E0,4.5847726E-1,-1.2757094E-1,5.084295E-1,1.1995015E0,1.7333803E0,7.938357E-1,1.457683E0,7.1013993E-1,-5.0225146E-3,-1.8780474E-2,1.6440751E-2,-5.44369E-3,-1.8478353E-2,-3.4756297E-3,-1.4503219E-2,-2.2385657E-2,-9.7896345E-3,1.7564774E-2,6.3483894E-4,-1.6677804E-2,-1.99562E-3,3.8555566E-2,6.424973E-4,4.7799915E-2,2.3107387E-2,6.8265316E-3,7.212301E-3,-9.872311E-3,2.4579061E-2,5.5236523E-3,2.210474E-2,4.3692473E-2,1.9958315E-2,5.4736797E-2,-2.6579867E-3,3.781162E-2,5.1892824E-2,2.1708358E-2,1.1561222E-2,2.9323583E-2],"categories":[0,1,3,6,7,0,1,3,7,2,6,8,9,10,11,13,14,15,16,18,19,20,21,22,25,27,28,29,30,31,32,0,1,3,7,0,4,0,1,3,4,1,2,3,4,5,7,8,9,10,11,12,13,15,16,17,18,19,20,22,24,25,26,27,28,29,30,31,32,0,1,2,7,8,9,11,12,13,14,16,17,19,20,21,22,23,24,25,26,29,31,32,0,2,3,0,1,2,3,4,5,6,7,8,9,10,11,12,13,14,15,16,17,18,19,0,1,2,3,4,5,6,7,10,12,13,14,15,18,20,22,23,24,26,27,0,1,3,0,3,4],"categories_nodes":[3,6,9,11,13,15,16,18,20,22,24,25,29],"categories_segments":[0,5,9,31,35,37,41,69,92,95,115,135,138],"categories_sizes":[5,4,22,4,2,4,28,23,3,20,20,3,3],"default_left":[0,0,0,1,0,0,1,0,0,1,0,1,0,1,0,1,1,0,1,0,1,0,1,0,1,1,0,0,0,1,0,0,0,0,0,0,0,0,0,0,0,0,0,0,0,0,0,0,0,0,0,0,0,0,0,0,0,0,0,0,0,0,0],"id":18,"left_children":[1,3,5,7,9,11,13,15,17,19,21,23,25,27,29,31,33,35,37,39,41,43,45,47,49,51,53,55,57,59,61,-1,-1,-1,-1,-1,-1,-1,-1,-1,-1,-1,-1,-1,-1,-1,-1,-1,-1,-1,-1,-1,-1,-1,-1,-1,-1,-1,-1,-1,-1,-1,-1],"loss_changes":[4.1295554E2,6.547075E1,1.113907E2,2.7836533E1,2.1646652E1,5.541172E1,1.7873535E1,1.7928818E1,1.375206E1,1.6258633E1,9.20529E0,2.8774014E1,2.016433E1,9.978287E0,1.3755333E1,4.7258263E0,1.4864996E1,5.258311E0,5.0597534E0,1.2472949E1,1.2066161E1,8.982689E0,8.91399E0,9.209177E0,1.701624E1,1.290564E1,5.8810806E0,4.0387726E0,9.275196E0,4.921715E0,8.516506E0,0E0,0E0,0E0,0E0,0E0,0E0,0E0,0E0,0E0,0E0,0E0,0E0,0E0,0E0,0E0,0E0,0E0,0E0,0E0,0E0,0E0,0E0,0E0,0E0,0E0,0E0,0E0,0E0,0E0,0E0,0E0,0E0],"parents":[2147483647,0,0,1,1,2,2,3,3,4,4,5,5,6,6,7,7,8,8,9,9,10,10,11,11,12,12,13,13,14,14,15,15,16,16,17,17,18,18,19,19,20,20,21,21,22,22,23,23,24,24,25,25,26,26,27,27,28,28,29,29,30,30],"right_children":[2,4,6,8,10,12,14,16,18,20,22,24,26,28,30,32,34,36,38,40,42,44,46,48,50,52,54,56,58,60,62,-1,-1,-1,-1,-1,-1,-1,-1,-1,-1,-1,-1,-1,-1,-1,-1,-1,-1,-1,-1,-1,-1,-1,-1,-1,-1,-1,-1,-1,-1,-1,-1],"split_conditions":[2.16E0,1E0,3.2E-1,1E-45,2.054E0,6.8E0,1E-45,3.1E-1,3.37E-1,1E-45,1E0,1E-45,6.56E-1,1E-45,1.56E-1,1E-45,1E-45,6.6E-1,1E-45,1.9E1,1E-45,4.1E1,1E-45,5.3E0,1E-45,1E-45,2E0,3E-1,6.26E-1,1E-45,5.5E1,-5.0225146E-3,-1.8780474E-2,1.6440751E-2,-5.44369E-3,-1.8478353E-2,-3.4756297E-3,-1.4503219E-2,-2.2385657E-2,-9.7896345E-3,1.7564774E-2,6.3483894E-4,-1.6677804E-2,-1.99562E-3,3.8555566E-2,6.424973E-4,4.7799915E-2,2.3107387E-2,6.8265316E-3,7.212301E-3,-9.872311E-3,2.4579061E-2,5.5236523E-3,2.210474E-2,4.3692473E-2,1.9958315E-2,5.4736797E-2,-2.6579867E-3,3.781162E-2,5.1892824E-2,2.1708358E-2,1.1561222E-2,2.9323583E-2],"split_indices":[16,17,12,2,17,16,2,16,6,0,8,2,19,1,6,1,0,16,0,5,2,5,0,3,0,2,15,18,12,1,5,0,0,0,0,0,0,0,0,0,0,0,0,0,0,0,0,0,0,0,0,0,0,0,0,0,0,0,0,0,0,0,0],"split_type":[0,0,0,1,0,0,1,0,0,1,0,1,0,1,0,1,1,0,1,0,1,0,1,0,1,1,0,0,0,1,0,0,0,0,0,0,0,0,0,0,0,0,0,0,0,0,0,0,0,0,0,0,0,0,0,0,0,0,0,0,0,0,0],"sum_hessian":[1.898768E3,1.1237651E3,7.750028E2,8.694996E2,2.5426555E2,5.5066345E2,2.2433937E2,2.612045E2,6.0829504E2,2.1234103E2,4.1924503E1,3.561308E2,1.9453264E2,8.4384315E1,1.3995505E2,1.22116936E2,1.3908757E2,9.762529E1,5.1066977E2,6.949412E1,1.4284692E2,2.4060987E1,1.7863516E1,1.3078194E2,2.2534888E2,1.2900134E2,6.55313E1,6.4397865E1,1.9986452E1,3.517655E1,1.047785E2,3.2152267E1,8.996467E1,3.605663E1,1.0303094E2,2.91899E1,6.8435394E1,1.0909796E2,4.015718E2,1.95996E1,4.9894516E1,7.506811E1,6.777882E1,1.9573452E1,4.487536E0,4.817782E0,1.3045733E1,5.3662415E1,7.711952E1,7.960034E1,1.4574854E2,6.430639E1,6.4694954E1,2.6158472E1,3.9372833E1,6.3700504E0,5.8027813E1,7.47273E0,1.2513722E1,2.368507E1,1.1491483E1,4.951034E1,5.5268158E1],"tree_param":{"num_deleted":"0","num_feature":"20","num_nodes":"63","size_leaf_vector":"1"}},{"base_weights":[9.788747E-3,-4.2889026E-1,5.2409744E-1,-5.498317E-1,-1.9172844E-2,3.0558488E-1,1.1679164E0,-5.8252585E-1,3.3284608E-1,3.4705204E-1,-2.5823256E-1,1.5702508E-1,9.8715013E-1,1.6567601E0,9.8781043E-1,-3.631076E-1,-6.760614E-1,2.9266762E-2,3.1752802E-2,7.3195285E-1,-3.2821592E-2,1.512782E-1,-4.348771E-1,5.2758056E-1,-5.3831134E-2,1.2878006E0,5.588916E-1,1.2394092E0,5.71504E-2,1.2505134E0,6.032816E-1,-1.638554E-2,-4.662172E-3,-1.4984541E-2,-2.3822363E-2,1.1939444E-2,-1.1168229E-2,3.0872546E-2,4.6634087E-3,6.691815E-3,-1.8605746E-2,2.741337E-2,-1.7570149E-3,-1.59873E-2,1.7375225E-2,3.2350954E-2,1.0285081E-2,-8.917991E-3,6.730916E-3,7.366572E-3,4.174194E-2,1.1070895E-3,3.8013116E-2,4.2152155E-2,2.2125093E-2,4.2233523E-2,1.9637179E-2,8.332244E-3,2.5584282E-2],"categories":[0,1,3,6,7,0,2,3,6,0,1,3,6,7,0,1,3,7,0,3,1,3,7,0,3,4,0,1,3,4,5,6,7,8,9,1,2,3,4,5,7,8,10,11,13,14,15,17,19,20,21,22,24,25,26,27,28,29,30,31,32,0,3,4,0,4],"categories_nodes":[7,9,10,11,12,14,19,20,23,27,29],"categories_segments":[0,5,9,14,18,20,23,26,35,61,64],"categories_sizes":[5,4,5,4,2,3,3,9,26,3,2],"default_left":[0,0,0,0,0,0,0,1,0,1,1,1,1,0,1,0,0,0,0,1,1,0,0,1,0,0,0,1,0,1,0,0,0,0,0,0,0,0,0,0,0,0,0,0,0,0,0,0,0,0,0,0,0,0,0,0,0,0,0],"id":19,"left_children":[1,3,5,7,9,11,13,15,17,19,21,23,25,27,29,31,33,35,-1,37,39,41,43,45,47,49,51,53,-1,55,57,-1,-1,-1,-1,-1,-1,-1,-1,-1,-1,-1,-1,-1,-1,-1,-1,-1,-1,-1,-1,-1,-1,-1,-1,-1,-1,-1,-1],"loss_changes":[4.2487778E2,5.0340546E1,1.2123697E2,2.3031204E1,2.064003E1,6.549461E1,1.6003937E1,1.5052216E1,6.391449E0,1.36687355E1,1.0443262E1,4.1934486E1,1.348703E1,1.0794678E0,1.5154221E1,8.60173E0,1.0223694E1,3.658963E0,0E0,7.621063E0,7.6109524E0,7.218171E0,1.0568911E1,1.905819E1,2.3390003E1,6.5054398E0,1.8889536E1,1.3998795E-1,0E0,7.1673126E0,5.278801E0,0E0,0E0,0E0,0E0,0E0,0E0,0E0,0E0,0E0,0E0,0E0,0E0,0E0,0E0,0E0,0E0,0E0,0E0,0E0,0E0,0E0,0E0,0E0,0E0,0E0,0E0,0E0,0E0],"parents":[2147483647,0,0,1,1,2,2,3,3,4,4,5,5,6,6,7,7,8,8,9,9,10,10,11,11,12,12,13,13,14,14,15,15,16,16,17,17,19,19,20,20,21,21,22,22,23,23,24,24,25,25,26,26,27,27,29,29,30,30],"right_children":[2,4,6,8,10,12,14,16,18,20,22,24,26,28,30,32,34,36,-1,38,40,42,44,46,48,50,52,54,-1,56,58,-1,-1,-1,-1,-1,-1,-1,-1,-1,-1,-1,-1,-1,-1,-1,-1,-1,-1,-1,-1,-1,-1,-1,-1,-1,-1,-1,-1],"split_conditions":[3.7E1,1E0,1.958E0,1E0,3.49E-1,1E0,1.56E-1,1E-45,6.49E-1,1E-45,1E-45,1E-45,1E-45,3E0,1E-45,3.2E-1,4.19E-1,3.66E-1,3.1752802E-2,1E-45,1E-45,3.71E-1,2.462E0,1E-45,5.2E1,4.1E1,4E0,1E-45,5.71504E-2,1E-45,6.93E-1,-1.638554E-2,-4.662172E-3,-1.4984541E-2,-2.3822363E-2,1.1939444E-2,-1.1168229E-2,3.0872546E-2,4.6634087E-3,6.691815E-3,-1.8605746E-2,2.741337E-2,-1.7570149E-3,-1.59873E-2,1.7375225E-2,3.2350954E-2,1.0285081E-2,-8.917991E-3,6.730916E-3,7.366572E-3,4.174194E-2,1.1070895E-3,3.8013116E-2,4.2152155E-2,2.2125093E-2,4.2233523E-2,1.9637179E-2,8.332244E-3,2.5584282E-2],"split_indices":[5,17,17,13,6,13,6,2,18,2,2,2,2,10,2,16,6,6,0,1,0,6,17,0,5,5,10,1,0,1,18,0,0,0,0,0,0,0,0,0,0,0,0,0,0,0,0,0,0,0,0,0,0,0,0,0,0,0,0],"split_type":[0,0,0,0,0,0,0,1,0,1,1,1,1,0,1,0,0,0,0,1,1,0,0,1,0,0,0,1,0,1,0,0,0,0,0,0,0,0,0,0,0,0,0,0,0,0,0,0,0,0,0,0,0,0,0,0,0,0,0],"sum_hessian":[1.8791938E3,1.0143432E3,8.648507E2,7.826381E2,2.3170506E2,6.4790173E2,2.1694896E2,7.553406E2,2.7297523E1,9.115606E1,1.40549E2,5.3397314E2,1.1392858E2,5.399583E1,1.6295314E2,2.2867421E2,5.266664E2,2.071228E1,6.5852427E0,4.435769E1,4.6798374E1,4.244258E1,9.8106415E1,1.9256253E2,3.4141058E2,6.4578445E1,4.935014E1,2.4609173E1,2.938666E1,9.4136604E1,6.881653E1,1.1980965E2,1.0886456E2,2.1518022E2,3.1148615E2,1.0806736E1,9.905544E0,2.8235165E1,1.6122524E1,3.3461617E1,1.3336755E1,7.7117715E0,3.4730812E1,9.0323395E1,7.783018E0,4.593649E1,1.4662605E2,1.8200743E2,1.5940317E2,6.448046E0,5.8130398E1,2.962167E1,1.972847E1,1.579637E1,8.812803E0,7.232518E1,2.181143E1,3.1693954E1,3.7122574E1],"tree_param":{"num_deleted":"0","num_feature":"20","num_nodes":"59","size_leaf_vector":"1"}},{"base_weights":[7.1014487E-3,-2.5399595E-1,7.911269E-1,-3.5405463E-1,5.935002E-1,5.472058E-1,1.2672275E0,-4.1664094E-1,5.864307E-1,2.8346828E-1,8.972946E-1,6.492825E-1,-3.2002786E-1,1.0798844E0,1.7260004E0,-6.969182E-1,-2.7141073E-1,-3.538154E-1,7.057963E-1,1.3956402E-1,1.040832E0,-1.7624448E-1,1.0578884E0,5.3509426E-1,1.3929648E0,7.939911E-2,-5.558173E-1,1.4851927E0,8.7574506E-1,5.5838276E-2,2.6852807E-2,-1.5750475E-2,-2.3577277E-2,-9.673945E-3,8.880145E-3,6.2657297E-3,-2.3519376E-2,3.330893E-2,1.31363245E-2,2.0154062E-4,2.5227875E-2,1.878441E-3,4.8842605E-2,6.210583E-3,-1.3353177E-2,3.6628004E-2,1.4269191E-2,2.3641989E-2,9.564806E-3,1.3567161E-2,6.2036168E-2,-9.610409E-3,1.3680723E-2,1.9585337E-4,-2.1626592E-2,5.1018234E-2,1.9897787E-2,2.9330928E-2,5.751365E-3],"categories":[18,19,23,26,3,4,0,1,2,3,5,7,8,9,12,13,14,19,20,21,23,24,27,30,31,0,1,0,4,1,3,4,5,8,10,11,13,14,15,16,17,18,19,20,21,23,24,26,27,30,32,0,4],"categories_nodes":[5,14,15,17,22,23,27],"categories_segments":[0,4,6,25,27,29,51],"categories_sizes":[4,2,19,2,2,22,2],"default_left":[0,0,0,0,0,1,0,0,0,0,0,0,0,0,1,1,0,1,0,0,0,0,1,1,0,0,0,1,0,0,0,0,0,0,0,0,0,0,0,0,0,0,0,0,0,0,0,0,0,0,0,0,0,0,0,0,0,0,0],"id":20,"left_children":[1,3,5,7,9,11,13,15,17,19,21,23,25,27,29,31,33,35,37,39,41,43,45,47,49,51,53,55,57,-1,-1,-1,-1,-1,-1,-1,-1,-1,-1,-1,-1,-1,-1,-1,-1,-1,-1,-1,-1,-1,-1,-1,-1,-1,-1,-1,-1,-1,-1],"loss_changes":[3.8383554E2,1.1970377E2,5.3012177E1,7.461711E1,1.3551891E1,2.8146683E1,9.780624E0,4.773314E1,9.411724E0,8.080603E0,1.3213127E1,2.2365852E1,3.321352E0,7.0742645E0,1.4145508E0,5.326584E0,2.2839405E1,2.815086E0,6.7363815E0,6.2177052E0,6.6633053E0,1.3596137E0,5.015999E0,1.2998985E1,2.107904E1,2.4741004E0,2.0363574E0,4.1705933E0,5.38863E0,0E0,0E0,0E0,0E0,0E0,0E0,0E0,0E0,0E0,0E0,0E0,0E0,0E0,0E0,0E0,0E0,0E0,0E0,0E0,0E0,0E0,0E0,0E0,0E0,0E0,0E0,0E0,0E0,0E0,0E0],"parents":[2147483647,0,0,1,1,2,2,3,3,4,4,5,5,6,6,7,7,8,8,9,9,10,10,11,11,12,12,13,13,14,14,15,15,16,16,17,17,18,18,19,19,20,20,21,21,22,22,23,23,24,24,25,25,26,26,27,27,28,28],"right_children":[2,4,6,8,10,12,14,16,18,20,22,24,26,28,30,32,34,36,38,40,42,44,46,48,50,52,54,56,58,-1,-1,-1,-1,-1,-1,-1,-1,-1,-1,-1,-1,-1,-1,-1,-1,-1,-1,-1,-1,-1,-1,-1,-1,-1,-1,-1,-1,-1,-1],"split_conditions":[4.55E0,1.85E-1,3.65E-1,1E0,2E0,1E-45,2.193E0,2.5E-1,1E-1,1.505E0,9.1E-1,6E0,1.94E-1,1.56E-1,1E-45,1E-45,1.705E0,1E-45,2.97E-1,5E1,5.09E-1,3E-1,1E-45,1E-45,2.6E1,1.75E-1,5.29E0,1E-45,5E0,5.5838276E-2,2.6852807E-2,-1.5750475E-2,-2.3577277E-2,-9.673945E-3,8.880145E-3,6.2657297E-3,-2.3519376E-2,3.330893E-2,1.31363245E-2,2.0154062E-4,2.5227875E-2,1.878441E-3,4.8842605E-2,6.210583E-3,-1.3353177E-2,3.6628004E-2,1.4269191E-2,2.3641989E-2,9.564806E-3,1.3567161E-2,6.2036168E-2,-9.610409E-3,1.3680723E-2,1.9585337E-4,-2.1626592E-2,5.1018234E-2,1.9897787E-2,2.9330928E-2,5.751365E-3],"split_indices":[16,12,12,13,7,0,18,16,18,18,16,7,6,6,1,0,18,1,6,5,12,18,1,0,4,19,16,1,7,0,0,0,0,0,0,0,0,0,0,0,0,0,0,0,0,0,0,0,0,0,0,0,0,0,0,0,0,0,0],"split_type":[0,0,0,0,0,1,0,0,0,0,0,0,0,0,1,1,0,1,0,0,0,0,1,1,0,0,0,1,0,0,0,0,0,0,0,0,0,0,0,0,0,0,0,0,0,0,0,0,0,0,0,0,0,0,0,0,0,0,0],"sum_hessian":[1.871085E3,1.4046562E3,4.6642877E2,1.2573706E3,1.4728555E2,3.112596E2,1.5516919E2,1.1799619E3,7.740872E1,7.4807884E1,7.247767E1,2.78931E2,3.2328594E1,1.1494024E2,4.0228947E1,4.0014035E2,7.7982153E2,8.277595E0,6.913113E1,6.4853775E1,9.954105E0,9.405927E0,6.307174E1,2.4478473E2,3.414628E1,1.2492628E1,1.9835968E1,3.4296173E1,8.064406E1,3.246361E1,7.765334E0,1.4119531E2,2.5894507E2,7.162401E2,6.358142E1,4.032217E0,4.245377E0,2.5039064E1,4.4092064E1,5.6223587E1,8.630188E0,4.564333E0,5.3897724E0,4.0675845E0,5.338342E0,4.7559853E1,1.5511886E1,1.1038151E2,1.3440321E2,1.5659408E1,1.848687E1,6.2052693E0,6.2873588E0,4.9371924E0,1.4898775E1,2.548017E1,8.816005E0,6.9436226E1,1.1207836E1],"tree_param":{"num_deleted":"0","num_feature":"20","num_nodes":"59","size_leaf_vector":"1"}},{"base_weights":[3.5078407E-3,-3.4434626E-1,5.418445E-1,1.025773E-1,-5.317858E-1,3.146553E-1,1.0781258E0,3.5757628E-1,-2.3111434E-1,-2.697817E-1,-6.471392E-1,1.7541596E-1,1.1097319E0,1.6616409E-1,1.1577241E0,1.8110573E-1,1.1832526E0,-3.196435E-1,1.7508547E-1,1.5703109E-1,-4.1902775E-1,-6.89692E-1,-1.6239235E-1,6.371956E-1,-4.021705E-2,7.907658E-1,1.531729E0,-1.6700441E-2,4.535737E-1,1.4570184E0,8.946732E-1,1.180458E-2,-4.9291044E-3,4.319247E-2,2.7842537E-4,-1.0878125E-2,1.1120523E-2,-4.6348968E-3,2.3066422E-2,-5.4898453E-3,1.1572384E-2,-1.4129919E-2,1.6676664E-2,-1.8117832E-2,-2.4257395E-2,-9.240594E-3,2.6313622E-2,3.8240217E-2,1.1773717E-2,-4.33031E-3,1.8763045E-2,5.989073E-3,3.3777174E-2,5.193348E-2,8.4689595E-3,2.7260205E-2,-1.2884183E-2,4.7741644E-2,2.9100543E-2,3.172237E-2,6.052357E-3],"categories":[0,3,0,1,3,6,7,0,1,3,4,0,1,3,6,7,0,1,2,3,4,5,6,7,8,9,10,11,12,13,14,15,16,17,18,19,20,21,22,0,3,7,1,3,4,6,7,8,10,11,13,15,17,18,20,22,24,25,27,31,0,4,3,7,8,9,11,12,13,17,19,21,22,23,24,31,0,1,2,3,4,5,6,7,0,4],"categories_nodes":[3,4,9,11,13,14,15,16,21,28,29],"categories_segments":[0,2,7,11,16,39,42,60,62,76,84],"categories_sizes":[2,5,4,5,23,3,18,2,14,8,2],"default_left":[0,0,0,1,1,0,0,0,0,1,0,1,0,1,1,1,1,0,0,0,0,1,0,0,0,0,0,0,1,1,0,0,0,0,0,0,0,0,0,0,0,0,0,0,0,0,0,0,0,0,0,0,0,0,0,0,0,0,0,0,0],"id":21,"left_children":[1,3,5,7,9,11,13,15,17,19,21,23,25,27,29,31,33,35,37,39,41,43,45,47,49,51,53,-1,55,57,59,-1,-1,-1,-1,-1,-1,-1,-1,-1,-1,-1,-1,-1,-1,-1,-1,-1,-1,-1,-1,-1,-1,-1,-1,-1,-1,-1,-1,-1,-1],"loss_changes":[3.536379E2,9.6211365E1,8.96355E1,2.9151329E1,2.4087753E1,5.7566257E1,1.5567612E1,2.7820726E1,5.461804E0,1.6094477E1,1.1326462E1,4.464759E1,8.028366E0,4.6551404E0,1.3279022E1,1.2020502E1,1.0144733E1,3.9123783E0,5.700455E0,5.3034115E0,9.958408E0,4.2658386E0,7.7770376E0,2.1260265E1,2.1472116E1,9.129841E0,6.8172226E0,0E0,6.967485E0,2.8810272E0,1.2268036E1,0E0,0E0,0E0,0E0,0E0,0E0,0E0,0E0,0E0,0E0,0E0,0E0,0E0,0E0,0E0,0E0,0E0,0E0,0E0,0E0,0E0,0E0,0E0,0E0,0E0,0E0,0E0,0E0,0E0,0E0],"parents":[2147483647,0,0,1,1,2,2,3,3,4,4,5,5,6,6,7,7,8,8,9,9,10,10,11,11,12,12,13,13,14,14,15,15,16,16,17,17,18,18,19,19,20,20,21,21,22,22,23,23,24,24,25,25,26,26,28,28,29,29,30,30],"right_children":[2,4,6,8,10,12,14,16,18,20,22,24,26,28,30,32,34,36,38,40,42,44,46,48,50,52,54,-1,56,58,60,-1,-1,-1,-1,-1,-1,-1,-1,-1,-1,-1,-1,-1,-1,-1,-1,-1,-1,-1,-1,-1,-1,-1,-1,-1,-1,-1,-1,-1,-1],"split_conditions":[1E0,3.22E-1,2.204E0,1E-45,1E-45,1E0,2E-1,1E0,2E1,1E-45,9.49E-1,1E-45,9.73E-1,1E-45,1E-45,1E-45,1E-45,3.18E-1,2.11E-1,1E0,1E0,1E-45,1E0,2.42E-1,1.805E0,2.56E-1,2.94E-1,-1.6700441E-2,1E-45,1E-45,3.21E-1,1.180458E-2,-4.9291044E-3,4.319247E-2,2.7842537E-4,-1.0878125E-2,1.1120523E-2,-4.6348968E-3,2.3066422E-2,-5.4898453E-3,1.1572384E-2,-1.4129919E-2,1.6676664E-2,-1.8117832E-2,-2.4257395E-2,-9.240594E-3,2.6313622E-2,3.8240217E-2,1.1773717E-2,-4.33031E-3,1.8763045E-2,5.989073E-3,3.3777174E-2,5.193348E-2,8.4689595E-3,2.7260205E-2,-1.2884183E-2,4.7741644E-2,2.9100543E-2,3.172237E-2,6.052357E-3],"split_indices":[17,6,17,2,2,13,18,13,4,1,18,2,18,0,2,0,1,6,6,7,13,0,13,6,18,6,6,0,0,1,6,0,0,0,0,0,0,0,0,0,0,0,0,0,0,0,0,0,0,0,0,0,0,0,0,0,0,0,0,0,0],"split_type":[0,0,0,1,1,0,0,0,0,1,0,1,0,1,1,1,1,0,0,0,0,1,0,0,0,0,0,0,1,1,0,0,0,0,0,0,0,0,0,0,0,0,0,0,0,0,0,0,0,0,0,0,0,0,0,0,0,0,0,0,0],"sum_hessian":[1.8844669E3,1.1452E3,7.3926697E2,3.386475E2,8.065524E2,5.215093E2,2.1775772E2,1.918768E2,1.467707E2,2.4859406E2,5.579584E2,4.4586716E2,7.56421E1,1.7976381E1,1.9978133E2,1.6009798E2,3.1778816E1,1.20856766E2,2.5913935E1,6.437902E1,1.8421503E2,5.1215405E2,4.5804325E1,1.4068317E2,3.05184E2,4.6353542E1,2.9288551E1,4.581062E0,1.339532E1,8.920629E1,1.1057504E2,9.8967735E1,6.113024E1,2.5708982E1,6.0698347E0,1.1467006E2,6.186707E0,1.7615952E1,8.297984E0,2.6050331E1,3.832869E1,1.7587357E2,8.341465E0,3.0458774E2,2.0756635E2,4.1410435E1,4.393892E0,3.6692455E1,1.03990715E2,2.652567E2,3.992728E1,1.7926174E1,2.842737E1,2.4592909E1,4.695641E0,8.801307E0,4.594013E0,6.636095E1,2.2845343E1,8.869287E1,2.1882175E1],"tree_param":{"num_deleted":"0","num_feature":"20","num_nodes":"61","size_leaf_vector":"1"}},{"base_weights":[-1.3598977E-3,-3.616961E-1,5.1380104E-1,-5.842254E-1,-1.12761304E-1,9.137712E-2,7.7942294E-1,-3.341479E-1,-6.8862486E-1,-1.8534055E-1,6.983844E-1,-1.2056992E-1,4.7834158E-1,5.19411E-1,1.0931381E0,-4.263978E-1,2.7506927E-1,-4.1861725E-1,-7.493331E-1,-2.6314414E-1,4.6413508E-1,1.2763319E0,4.1497505E-1,1.6553746E-1,-3.6498308E-1,6.86243E-1,-4.034587E-2,8.168952E-1,8.2500875E-2,6.925338E-1,1.2660884E0,-4.597142E-3,-1.8262606E-2,-7.822179E-3,1.8061832E-2,-6.867795E-3,-1.8873107E-2,-2.3013914E-2,-1.0324362E-3,-4.44422E-3,-1.8152086E-2,1.8882534E-2,-1.9145647E-2,5.548327E-2,1.3336797E-2,3.0439647E-4,2.3620632E-2,1.6434494E-2,-7.528228E-4,-2.2504097E-3,-1.7850185E-2,2.5236867E-2,6.27151E-3,-1.9207722E-2,7.5318753E-3,3.605169E-2,1.2796693E-2,-6.492028E-3,1.4027462E-2,3.2080557E-2,1.38335135E-2,3.2874394E-2,5.0984863E-2],"categories":[0,1,3,6,7,0,1,2,3,5,7,8,9,11,12,13,14,17,19,20,21,22,23,24,25,26,27,30,31,32,0,1,3,4,0,1,2,3,4,5,7,8,9,10,11,13,14,15,17,18,19,20,1,3,0,3,6,7,8,10,16,20,22,23,24,26,27,30,31,0,1,4,0,1,2,3,4,5,6,7,8,9,10,11,12,13,14,15,16,17,18,0,2,0,4,0,1,2,3,7,0,3,7,0,4,0,1,3,6,0,1,2,3,5,6],"categories_nodes":[3,8,10,11,12,13,15,16,17,19,23,24,25,27,29],"categories_segments":[0,5,30,34,52,54,69,72,91,93,95,100,103,105,109],"categories_sizes":[5,25,4,18,2,15,3,19,2,2,5,3,2,4,6],"default_left":[0,0,0,1,0,0,0,0,1,0,1,1,1,1,0,1,1,1,0,1,0,0,0,1,1,1,0,1,0,1,0,0,0,0,0,0,0,0,0,0,0,0,0,0,0,0,0,0,0,0,0,0,0,0,0,0,0,0,0,0,0,0,0],"id":22,"left_children":[1,3,5,7,9,11,13,15,17,19,21,23,25,27,29,31,33,35,37,39,41,43,45,47,49,51,53,55,57,59,61,-1,-1,-1,-1,-1,-1,-1,-1,-1,-1,-1,-1,-1,-1,-1,-1,-1,-1,-1,-1,-1,-1,-1,-1,-1,-1,-1,-1,-1,-1,-1,-1],"loss_changes":[3.4854175E2,6.106993E1,8.65679E1,1.4757309E1,3.1104933E1,2.4769438E1,3.7543365E1,1.0100534E1,6.0820465E0,2.4625597E1,6.057741E0,1.3814192E1,1.1570244E1,3.40607E1,1.3010132E1,7.447056E0,4.5718517E0,2.8929205E0,4.167038E0,1.6814255E1,1.0339589E1,4.711376E0,4.82577E0,6.702131E0,6.996153E0,5.294155E0,5.9930983E0,2.2452736E1,1.2725147E1,5.0019455E0,7.0807953E0,0E0,0E0,0E0,0E0,0E0,0E0,0E0,0E0,0E0,0E0,0E0,0E0,0E0,0E0,0E0,0E0,0E0,0E0,0E0,0E0,0E0,0E0,0E0,0E0,0E0,0E0,0E0,0E0,0E0,0E0,0E0,0E0],"parents":[2147483647,0,0,1,1,2,2,3,3,4,4,5,5,6,6,7,7,8,8,9,9,10,10,11,11,12,12,13,13,14,14,15,15,16,16,17,17,18,18,19,19,20,20,21,21,22,22,23,23,24,24,25,25,26,26,27,27,28,28,29,29,30,30],"right_children":[2,4,6,8,10,12,14,16,18,20,22,24,26,28,30,32,34,36,38,40,42,44,46,48,50,52,54,56,58,60,62,-1,-1,-1,-1,-1,-1,-1,-1,-1,-1,-1,-1,-1,-1,-1,-1,-1,-1,-1,-1,-1,-1,-1,-1,-1,-1,-1,-1,-1,-1,-1,-1],"split_conditions":[2.33E0,5.9E-1,1E0,1E-45,1E0,6.37E0,9.93E-1,1E0,1E-45,1.79E0,1E-45,1E-45,1E-45,1E-45,1E0,1E-45,1E-45,1E-45,2.84E-1,1E-45,1E1,7.1E0,6.3E0,1E-45,1E-45,1E-45,1E0,1E-45,2E0,1E-45,1E0,-4.597142E-3,-1.8262606E-2,-7.822179E-3,1.8061832E-2,-6.867795E-3,-1.8873107E-2,-2.3013914E-2,-1.0324362E-3,-4.44422E-3,-1.8152086E-2,1.8882534E-2,-1.9145647E-2,5.548327E-2,1.3336797E-2,3.0439647E-4,2.3620632E-2,1.6434494E-2,-7.528228E-4,-2.2504097E-3,-1.7850185E-2,2.5236867E-2,6.27151E-3,-1.9207722E-2,7.5318753E-3,3.605169E-2,1.2796693E-2,-6.492028E-3,1.4027462E-2,3.2080557E-2,1.38335135E-2,3.2874394E-2,5.0984863E-2],"split_indices":[16,16,17,2,13,16,18,17,0,17,1,0,2,0,8,1,0,1,12,1,4,3,3,2,2,1,8,2,17,2,13,0,0,0,0,0,0,0,0,0,0,0,0,0,0,0,0,0,0,0,0,0,0,0,0,0,0,0,0,0,0,0,0],"split_type":[0,0,0,1,0,0,0,0,1,0,1,1,1,1,0,1,1,1,0,1,0,0,0,1,1,1,0,1,0,1,0,0,0,0,0,0,0,0,0,0,0,0,0,0,0,0,0,0,0,0,0,0,0,0,0,0,0,0,0,0,0,0,0],"sum_hessian":[1.8736019E3,1.1028174E3,7.7078455E2,5.808693E2,5.2194806E2,2.986011E2,4.7218344E2,1.735502E2,4.0731912E2,4.8049738E2,4.1450665E1,1.9381963E2,1.0478147E2,2.6109518E2,2.1108827E2,1.5124788E2,2.2302326E1,7.766868E1,3.2965045E2,4.3015668E2,5.034071E1,1.133289E1,3.0117775E1,8.9590904E1,1.04228714E2,7.4338776E1,3.0442701E1,1.5429744E2,1.0679773E2,6.666975E1,1.4441852E2,6.2022285E1,8.922559E1,8.60591E0,1.3696416E1,4.30485E1,3.4620182E1,3.2150082E2,8.149621E0,3.240365E2,1.0612019E2,4.452294E1,5.817768E0,5.2609663E0,6.071923E0,1.5414525E1,1.470325E1,2.8563765E1,6.102714E1,4.7279686E1,5.6949024E1,5.4962067E1,1.9376705E1,9.170176E0,2.1272526E1,7.560375E1,7.869369E1,6.062016E1,4.6177574E1,2.2610706E1,4.405904E1,1.0875001E2,3.5668518E1],"tree_param":{"num_deleted":"0","num_feature":"20","num_nodes":"63","size_leaf_vector":"1"}},{"base_weights":[3.9000402E-3,-3.949174E-1,4.4006035E-1,8.7265134E-2,-4.998793E-1,2.5804716E-1,1.0624889E0,-3.0951355E-2,1.0523841E0,-2.1499898E-1,-6.266484E-1,6.058639E-1,5.463897E-2,2.0915861E-1,1.1211989E0,5.9306943E-1,-1.8942069E-1,9.710601E-3,4.5303103E-2,-2.7548692E-1,8.0022925E-1,-6.652974E-1,4.3656707E-2,1.0483692E0,3.7530184E-1,-7.230267E-2,5.1608795E-1,-2.2118029E-1,2.3541763E-2,4.3305263E-2,9.4707936E-1,-1.3448216E-2,2.3433192E-2,-1.0576154E-2,7.7258456E-3,-1.4554913E-2,-1.4756187E-3,3.1124296E-2,4.062012E-3,-1.6577784E-2,-2.4204893E-2,-1.3274642E-2,9.793206E-3,1.3732574E-3,3.878861E-2,5.0088447E-3,2.411761E-2,-7.6466217E-3,6.937473E-3,1.1508839E-2,4.389198E-2,-1.2630386E-2,1.8802636E-3,3.1537477E-2,7.1816696E-3],"categories":[0,1,3,6,7,0,1,3,7,0,2,3,4,5,6,7,8,10,11,12,13,15,16,17,18,20,21,22,23,24,25,26,27,28,29,30,31,32,1,2,3,5,7,8,9,10,11,13,15,17,18,19,20,21,22,23,24,26,27,30,31,32,2,3,4,6,7,8,9,10,11,12,13,15,16,17,18,19,20,22,23,24,25,26,27,28,30,31,32,0,1,2,3,4,5,6,7,8,9,10,11,12,13,14,15,16,17,18,19,7],"categories_nodes":[4,5,7,11,14,22,30],"categories_segments":[0,5,9,38,62,89,109],"categories_sizes":[5,4,29,24,27,20,1],"default_left":[0,0,0,0,1,1,0,1,0,0,0,1,0,0,1,0,0,0,0,0,0,0,1,0,0,0,0,0,0,0,1,0,0,0,0,0,0,0,0,0,0,0,0,0,0,0,0,0,0,0,0,0,0,0,0],"id":23,"left_children":[1,3,5,7,9,11,13,15,17,19,21,23,25,27,29,31,33,-1,-1,35,37,39,41,43,45,47,49,51,-1,-1,53,-1,-1,-1,-1,-1,-1,-1,-1,-1,-1,-1,-1,-1,-1,-1,-1,-1,-1,-1,-1,-1,-1,-1,-1],"loss_changes":[3.2630667E2,4.968074E1,1.0095798E2,2.0245478E1,2.8803177E1,4.916792E1,9.655212E0,1.59991045E1,5.4791603E0,1.5851806E1,1.44639435E1,2.5392387E1,2.5924925E1,4.1782002E0,7.8510437E0,7.120864E0,9.566549E0,0E0,0E0,1.1261038E1,2.0255938E0,7.4967346E0,4.714332E0,2.1162506E1,1.5074276E1,1.939707E1,1.0850935E1,6.432909E-1,0E0,0E0,8.953217E0,0E0,0E0,0E0,0E0,0E0,0E0,0E0,0E0,0E0,0E0,0E0,0E0,0E0,0E0,0E0,0E0,0E0,0E0,0E0,0E0,0E0,0E0,0E0,0E0],"parents":[2147483647,0,0,1,1,2,2,3,3,4,4,5,5,6,6,7,7,8,8,9,9,10,10,11,11,12,12,13,13,14,14,15,15,16,16,19,19,20,20,21,21,22,22,23,23,24,24,25,25,26,26,27,27,30,30],"right_children":[2,4,6,8,10,12,14,16,18,20,22,24,26,28,30,32,34,-1,-1,36,38,40,42,44,46,48,50,52,-1,-1,54,-1,-1,-1,-1,-1,-1,-1,-1,-1,-1,-1,-1,-1,-1,-1,-1,-1,-1,-1,-1,-1,-1,-1,-1],"split_conditions":[3.7E1,3.2E-1,2.154E0,1E0,1E-45,1E-45,2E-1,1E-45,1E0,2.03E-1,2.7E-1,1E-45,1.8E0,3.14E-1,1E-45,1E-1,5.6E-2,9.710601E-3,4.5303103E-2,3.2E-1,2.104E0,4.69E-1,1E-45,4.2E1,6.8E0,5.16E0,3.4E1,3.056E0,2.3541763E-2,4.3305263E-2,1E-45,-1.3448216E-2,2.3433192E-2,-1.0576154E-2,7.7258456E-3,-1.4554913E-2,-1.4756187E-3,3.1124296E-2,4.062012E-3,-1.6577784E-2,-2.4204893E-2,-1.3274642E-2,9.793206E-3,1.3732574E-3,3.878861E-2,5.0088447E-3,2.411761E-2,-7.6466217E-3,6.937473E-3,1.1508839E-2,4.389198E-2,-1.2630386E-2,1.8802636E-3,3.1537477E-2,7.1816696E-3],"split_indices":[5,6,17,13,2,2,18,0,8,12,12,0,18,6,0,18,19,0,0,16,17,6,0,5,16,16,4,17,0,0,2,0,0,0,0,0,0,0,0,0,0,0,0,0,0,0,0,0,0,0,0,0,0,0,0],"split_type":[0,0,0,0,1,1,0,1,0,0,0,1,0,0,1,0,0,0,0,0,0,0,1,0,0,0,0,0,0,0,1,0,0,0,0,0,0,0,0,0,0,0,0,0,0,0,0,0,0,0,0,0,0,0,0],"sum_hessian":[1.8718845E3,9.7789935E2,8.939851E2,1.7487619E2,8.030232E2,6.939008E2,2.0008427E2,1.5751784E2,1.7358347E1,2.4895473E2,5.540684E2,2.5459698E2,4.3930386E2,1.3467265E1,1.86617E2,3.0789587E1,1.2672826E2,8.014099E0,9.344248E0,2.3633125E2,1.2623477E1,5.2387726E2,3.0191174E1,8.478319E1,1.698138E2,3.4584952E2,9.3454346E1,8.410415E0,5.0568504E0,6.0340683E1,1.2627632E2,4.285987E0,2.6503601E1,9.315355E1,3.3574707E1,1.21483505E2,1.14847755E2,8.477285E0,4.1461926E0,2.9710028E2,2.26777E2,1.0687807E1,1.9503366E1,1.7092478E1,6.769071E1,1.16140144E2,5.367365E1,2.1615443E2,1.2969508E2,8.445175E1,9.002598E0,4.368578E0,4.0418367E0,1.0922744E2,1.704888E1],"tree_param":{"num_deleted":"0","num_feature":"20","num_nodes":"55","size_leaf_vector":"1"}},{"base_weights":[1.727554E-4,-3.949921E-1,4.2931223E-1,-4.4234422E-1,6.048005E-1,7.0521936E-2,6.94611E-1,-5.542627E-1,-6.567297E-2,7.9477006E-1,1.1956301E-1,3.9555362E-1,-1.2464798E-1,1.0450509E0,4.816559E-1,-3.2834154E-1,-6.520879E-1,3.1259376E-1,-2.7490014E-1,-1.7736786E-3,9.4432425E-1,1.7961778E-2,-1.0840157E-2,2.5907335E-1,1.0726367E0,-3.0194712E-1,2.9609025E-1,6.493654E-1,1.2689906E0,2.3216322E-1,8.091177E-1,6.36589E-3,-1.2228714E-2,-1.3848763E-2,-2.1203352E-2,1.7409861E-3,1.853772E-2,-1.3133346E-2,6.584439E-4,1.7224794E-2,3.962189E-2,6.113689E-3,3.4715928E-2,-4.385421E-5,4.048655E-2,-1.2205844E-2,4.763825E-3,1.7549796E-2,-1.9916096E-3,1.2487098E-2,3.086965E-2,3.1687427E-2,4.752494E-2,-2.0183745E-4,1.8750137E-2,2.9228635E-2,2.2712871E-3],"categories":[0,1,3,7,0,1,3,7,0,1,3,6,7,0,2,3,6,7,0,1,2,3,0,1,2,3,4,5,6,7,8,9,10,11,12,13,14,15,19,21,22,23,24,26,27,28,29,30,31,32,0,1,2,3,6,7,8,9,11,12,14,17,19,20,21,22,23,24,26,27,30,31,32,1,2,3,4,5,6,3,4,5,6,7,9,31],"categories_nodes":[5,6,7,8,10,15,16,26,30],"categories_segments":[0,4,8,13,18,22,50,73,79],"categories_sizes":[4,4,5,5,4,28,23,6,7],"default_left":[0,0,0,0,0,1,1,1,1,0,1,0,0,0,0,1,1,0,0,0,0,0,0,0,0,0,1,0,0,0,1,0,0,0,0,0,0,0,0,0,0,0,0,0,0,0,0,0,0,0,0,0,0,0,0,0,0],"id":24,"left_children":[1,3,5,7,9,11,13,15,17,19,21,23,25,27,29,31,33,35,37,-1,39,-1,-1,41,43,45,47,49,51,53,55,-1,-1,-1,-1,-1,-1,-1,-1,-1,-1,-1,-1,-1,-1,-1,-1,-1,-1,-1,-1,-1,-1,-1,-1,-1,-1],"loss_changes":[3.1712384E2,4.6625656E1,8.5235306E1,3.916188E1,3.9460354E0,2.4415012E1,3.7438995E1,1.5423233E1,1.7223927E1,4.184284E0,3.8841121E0,1.277816E1,1.8158497E1,1.5454956E1,2.6107132E1,9.633358E0,4.5399017E0,5.9650083E0,6.7780437E0,0E0,2.2810173E0,0E0,0E0,5.62181E0,7.0142365E0,8.373782E0,7.6663995E0,5.6795406E0,4.7774353E0,1.753725E1,1.6735054E1,0E0,0E0,0E0,0E0,0E0,0E0,0E0,0E0,0E0,0E0,0E0,0E0,0E0,0E0,0E0,0E0,0E0,0E0,0E0,0E0,0E0,0E0,0E0,0E0,0E0,0E0],"parents":[2147483647,0,0,1,1,2,2,3,3,4,4,5,5,6,6,7,7,8,8,9,9,10,10,11,11,12,12,13,13,14,14,15,15,16,16,17,17,18,18,20,20,23,23,24,24,25,25,26,26,27,27,28,28,29,29,30,30],"right_children":[2,4,6,8,10,12,14,16,18,20,22,24,26,28,30,32,34,36,38,-1,40,-1,-1,42,44,46,48,50,52,54,56,-1,-1,-1,-1,-1,-1,-1,-1,-1,-1,-1,-1,-1,-1,-1,-1,-1,-1,-1,-1,-1,-1,-1,-1,-1,-1],"split_conditions":[3.7E1,1E0,1E0,1E0,1.75E0,1E-45,1E-45,1E-45,1E-45,1E-1,1E-45,1E0,6.37E0,1E0,2E0,1E-45,1E-45,4E-1,1E0,-1.7736786E-3,2.8E1,1.7961778E-2,-1.0840157E-2,1.562E1,4.3E1,1.505E0,1E-45,8.54E-1,1E1,9.93E-1,1E-45,6.36589E-3,-1.2228714E-2,-1.3848763E-2,-2.1203352E-2,1.7409861E-3,1.853772E-2,-1.3133346E-2,6.584439E-4,1.7224794E-2,3.962189E-2,6.113689E-3,3.4715928E-2,-4.385421E-5,4.048655E-2,-1.2205844E-2,4.763825E-3,1.7549796E-2,-1.9916096E-3,1.2487098E-2,3.086965E-2,3.1687427E-2,4.752494E-2,-2.0183745E-4,1.8750137E-2,2.9228635E-2,2.2712871E-3],"split_indices":[5,13,17,17,16,2,2,2,2,18,2,13,16,8,17,0,0,18,8,0,5,0,0,16,5,18,2,19,16,18,0,0,0,0,0,0,0,0,0,0,0,0,0,0,0,0,0,0,0,0,0,0,0,0,0,0,0],"split_type":[0,0,0,0,0,1,1,1,1,0,1,0,0,0,0,1,1,0,0,0,0,0,0,0,0,0,1,0,0,0,1,0,0,0,0,0,0,0,0,0,0,0,0,0,0,0,0,0,0,0,0,0,0,0,0,0,0],"sum_hessian":[1.8660453E3,9.7156104E2,8.9448425E2,9.286916E2,4.286949E1,3.8131934E2,5.13165E2,7.1523456E2,2.1345703E2,2.9891306E1,1.2978186E1,1.4229347E2,2.3902585E2,1.9101503E2,3.2214993E2,2.1875246E2,4.964821E2,7.566764E1,1.377894E2,4.635256E0,2.525605E1,6.255394E0,6.722792E0,1.2072424E2,2.1569233E1,1.6855952E2,7.0466324E1,7.1853874E1,1.19161156E2,1.8478242E2,1.3736751E2,2.7552135E1,1.9120032E2,1.1497103E2,3.8151105E2,4.256246E1,3.310518E1,8.83584E1,4.9430996E1,1.5280079E1,9.975971E0,1.1603553E2,4.688714E0,4.828783E0,1.674045E1,1.3748665E2,3.1072878E1,3.8529583E1,3.1936743E1,4.7113857E1,2.4740015E1,7.63365E1,4.282465E1,1.16128914E2,6.865351E1,1.1158147E2,2.578604E1],"tree_param":{"num_deleted":"0","num_feature":"20","num_nodes":"57","size_leaf_vector":"1"}},{"base_weights":[-6.5331906E-3,-3.6940825E-1,3.9815265E-1,-5.605105E-1,-1.2910348E-1,2.3545846E-1,9.514346E-1,-2.1875784E-1,-6.279064E-1,-1.995265E-1,7.5278145E-1,1.2130198E-1,7.771995E-1,-8.452374E-2,1.0105716E0,-7.374358E-2,-6.7991483E-1,-3.162239E-1,-6.960385E-1,4.344577E-2,-4.7440675E-1,9.6160495E-1,-6.219745E-3,3.2800633E-1,-8.986066E-2,6.0045314E-1,4.5684833E-2,-1.672635E-2,8.867818E-3,8.718406E-1,1.5102317E0,-1.5496504E-2,1.3671356E-3,-2.3987591E-2,-4.5079985E-3,-1.4630548E-2,2.6112932E-3,-2.1623868E-2,-7.150569E-3,1.4709014E-2,-3.7963039E-3,-6.2598074E-3,-1.9978734E-2,3.2677513E-2,1.0978049E-2,5.9354203E-3,2.7443761E-2,1.1341312E-2,-8.350146E-3,3.6030477E-3,2.2895122E-2,3.8406868E-2,2.0979645E-2,5.2733865E-2,2.913169E-2],"categories":[0,1,2,3,5,6,7,0,1,2,3,5,7,8,9,10,11,12,13,14,17,19,20,21,22,23,24,25,29,30,31,32,2,6,7,8,12,13,20,21,22,25,26,27,28,29,30,31,0,0,1,3,0,1,2,3,4,5,6,7,8,9,10,11,12,13,14,15,16,17,18,19,0,3,7,0,1,2,3,4,5,0,1,2,3,5,6,8,9,10,13,14,15,16,17,18,20,23,25,26,27,29,30,31,0,1,2,3,4,5,6,7,8,9],"categories_nodes":[3,8,9,10,11,13,20,21,24,30],"categories_segments":[0,7,32,48,49,52,72,75,81,104],"categories_sizes":[7,25,16,1,3,20,3,6,23,10],